\data\
ngram 1=36924

\1-grams:
-6.460952	<unk>
0	<s>
-2.85043	well
-1.1236529	,
-2.8997123	prince
-2.4819906	so
-5.52714	genoa
-1.5387807	and
-5.346209	lucca
-2.6027596	are
-2.717339	now
-3.0055072	just
-3.6455035	family
-4.8166437	estates
-1.6354733	of
-1.2785338	the
-6.313484	buonapartes
-1.3856367	.
-2.1781511	but
-1.8781844	i
-4.545818	warn
-1.969846	you
-2.6350813	if
-2.5207708	do
-3.118735	tell
-2.4084058	me
-1.9009746	that
-2.356028	this
-3.6514394	means
-3.8826823	war
-3.0268202	still
-3.9046013	try
-1.6056494	to
-4.468731	defend
-6.313484	infamies
-5.1768255	horrors
-5.574523	perpetrated
-2.4244776	by
-5.6277156	antichrist
-3.4369862	really
-3.3806238	believe
-1.8326373	he
-2.242341	is
-2.6276062	will
-2.3563612	have
-3.0206234	nothing
-2.7741039	more
-2.0860944	with
-2.543705	no
-3.5891857	longer
-2.423133	my
-3.4101143	friend
-4.203842	slave
-2.2134535	as
-3.7640684	call
-3.5064526	yourself
-2.8347461	how
-2.884015	see
-4.0434365	frightened
-3.928816	sit
-3.0141	down
-2.38053	all
-3.862788	news
-1.9750651	it
-1.9401671	was
-1.8561956	in
-4.791177	july
-4.75939	speaker
-3.4590578	anna
-4.265605	pavlovna
-5.6277156	scherer
-4.309543	maid
-3.744382	honor
-4.29091	favorite
-4.5013156	empress
-4.176971	marya
-5.2907205	fedorovna
-2.9628356	these
-3.2426424	words
-2.2978647	she
-4.651396	greeted
-4.1277547	vasili
-4.688818	kuragin
-1.7554085	a
-2.7112608	man
-3.6974177	high
-4.431163	rank
-4.1592965	importance
-2.5444517	who
-3.0064538	first
-4.4929376	arrive
-2.1622856	at
-2.2021565	her
-4.555293	reception
-2.0975442	had
-4.936729	cough
-2.183449	for
-2.8232331	some
-3.4222834	days
-2.3265953	said
-3.989456	suffering
-2.417203	from
-3.9907596	la
-6.1838727	grippe
-3.206424	being
-2.6567955	then
-3.3745794	new
-3.3608966	word
-3.8158338	petersburg
-3.6823995	used
-2.742467	only
-6.1838727	elite
-5.52714	invitations
-2.9860945	without
-4.7830095	exception
-4.006715	written
-3.439914	french
-4.75939	delivered
-4.4533114	footman
-3.4480689	morning
-3.553416	ran
-4.6454606	follows
-3.4355297	better
-3.1368096	count
-2.6884794	or
-4.4495406	prospect
-4.903455	spending
-2.595606	an
-3.4244041	evening
-3.517726	poor
-4.5954065	invalid
-2.1294007	not
-3.0486364	too
-3.6980827	terrible
-3.1110902	shall
-2.3460038	be
-2.817589	very
-5.0552797	charmed
-4.628127	tonight
-3.4369862	between
-5.4455323	annette
-4.424024	heavens
-2.4579873	what
-6.1838727	virulent
-4.053878	attack
-3.0793817	replied
-3.5243654	least
-4.925352	disconcerted
-3.5938716	entered
-4.2730427	wearing
-4.8436975	embroidered
-3.9829965	court
-4.189167	uniform
-4.488808	knee
-5.0403924	breeches
-4.4929376	shoes
-4.3899913	stars
-2.2321856	on
-1.9584153	his
-4.2168283	breast
-4.6759825	serene
-3.5739222	expression
-4.5098586	flat
-3.0639687	face
-3.6994154	spoke
-4.972766	refined
-2.4205616	which
-2.999472	our
-6.1838727	grandfathers
-3.03167	thought
-4.417001	gentle
-5.6277156	patronizing
-5.1973395	intonation
-4.006715	natural
-4.214637	grown
-3.0480402	old
-3.885747	society
-2.9718652	went
-2.6677015	up
-4.0149174	kissed
-3.0755563	hand
-4.903455	presenting
-4.431163	bald
-5.265426	scented
-4.531982	shining
-3.1438096	head
-5.574523	complacently
-4.2102866	seated
-2.8619208	himself
-4.14603	sofa
-3.3417335	dear
-3.5384173	set
-2.648169	your
-3.371118	mind
-3.728394	rest
-5.52714	altering
-3.713663	tone
-4.081939	beneath
-4.6224995	politeness
-4.5649796	affected
-4.3405423	sympathy
-4.560109	indifference
-3.0055072	even
-4.736989	irony
-2.7143583	could
-5.3768606	discerned
-2.896128	can
-2.5192251	one
-3.1891818	while
-5.2415247	morally
-3.9508736	calm
-3.5943952	times
-2.8720322	like
-2.867979	has
-3.0455155	any
-3.4851546	feeling
-4.472673	staying
-3.2796118	whole
-3.6947682	hope
-5.1032734	fete
-4.108502	english
-4.872549	ambassador
-3.9829965	today
-5.138494	wednesday
-2.9487438	must
-3.2821581	put
-3.9484985	appearance
-2.578752	there
-3.713663	daughter
-3.5933483	coming
-3.1672733	take
-2.635542	been
-6.1838727	canceled
-4.167063	confess
-5.574523	festivities
-5.52714	fireworks
-4.3376307	becoming
-5.574523	wearisome
-2.4814243	they
-3.6934495	known
-3.7269695	wished
-5.070696	entertainment
-2.589967	would
-3.1479142	off
-4.5954065	clock
-3.969115	force
-4.3834934	habit
-3.455237	things
-2.6767926	did
-3.565015	wish
-3.9907596	believed
-5.4098406	tease
-3.931086	decided
-2.7981417	about
-5.843022	novosiltsev
-5.120527	dispatch
-2.8090003	know
-3.2909286	everything
-2.965537	say
-3.7822597	cold
-5.4455323	listless
-5.0403924	buonaparte
-4.7671213	burnt
-4.8344913	boats
-2.6498926	we
-3.6039326	ready
-4.6396055	burn
-4.5185733	ours
-3.247095	always
-5.574523	languidly
-5.1768255	actor
-4.457115	repeating
-5.688345	stale
-3.416678	part
-3.7995622	contrary
-4.4204984	despite
-4.29091	forty
-3.4946306	years
-5.346209	overflowed
-4.715687	animation
-6.0854983	impulsiveness
-5.843022	enthusiast
-3.6502457	become
-4.611459	social
-5.265426	vocation
-3.7095444	sometimes
-2.6877642	when
-3.639648	feel
-3.606081	became
-4.8079877	enthusiastic
-3.4992366	order
-5.52714	disappoint
-5.0403924	expectations
-3.144553	those
-3.2745638	knew
-4.936729	subdued
-3.3949533	smile
-3.0755563	though
-4.5365453	suit
-4.8929067	faded
-4.309543	features
-4.2755504	played
-3.4022992	round
-3.674765	lips
-4.0523705	expressed
-4.925352	spoiled
-3.5679638	child
-4.799501	continual
-4.3584323	consciousness
-4.1241903	charming
-5.3175793	defect
-3.8503287	neither
-3.6408126	nor
-4.0478806	considered
-3.7904131	necessary
-4.5505295	correct
-4.088429	midst
-3.5954447	conversation
-4.505566	political
-4.167063	matters
-4.028943	burst
-2.6820831	out
-3.144181	oh
-3.3999484	speak
-4.5954065	austria
-3.3304574	perhaps
-3.3253503	understand
-3.0845351	never
-3.3896878	does
-5.120527	betraying
-3.0167255	us
-3.9829965	russia
-3.3857799	alone
-4.0303707	save
-4.373925	europe
-4.6396055	gracious
-4.457115	sovereign
-5.4098406	recognizes
-3.5529394	true
-3.3452628	thing
-4.028943	faith
-3.107147	good
-4.346424	wonderful
-4.7297716	perform
-5.2907205	noblest
-4.972766	role
-3.814092	earth
-5.0259986	virtuous
-4.0966806	noble
-3.3205814	god
-5.6277156	forsake
-2.2194462	him
-5.265426	fulfill
-4.7830095	crush
-5.843022	hydra
-4.936729	revolution
-2.975253	than
-3.4738913	ever
-3.7102282	person
-4.522997	murderer
-5.157237	villain
-4.872549	avenge
-3.8637614	blood
-3.232275	whom
-3.4983954	ask
-4.799501	rely
-4.431163	england
-5.265426	commercial
-4.17898	spirit
-3.503892	emperor
-4.2487297	alexander
-5.7588334	loftiness
-3.65504	soul
-4.255882	refused
-6.313484	evacuate
-5.4455323	malta
-3.6490552	wanted
-3.3982768	find
-5.2907205	seeks
-3.8560348	secret
-4.600692	motive
-4.4204984	actions
-3.6131368	answer
-3.3203025	get
-4.041965	none
-3.748099	understood
-4.293523	wants
-4.628127	desires
-4.611459	mankind
-4.0275197	promised
-2.9699943	little
-4.9604187	prussia
-4.237066	declared
-5.3768606	invincible
-5.070696	powerless
-2.897074	before
-6.313484	hardenburg
-3.898225	says
-6.313484	haugwitz
-3.677295	either
-4.370782	famous
-5.4098406	prussian
-5.947553	neutrality
-4.715687	trap
-4.531982	lofty
-4.6574135	destiny
-4.862717	adored
-4.972766	monarch
-3.2426424	suddenly
-4.2534847	paused
-3.760981	smiling
-3.164538	own
-5.947553	impetuosity
-3.1593103	think
-3.5764291	sent
-3.828226	instead
-5.574523	wintzingerode
-4.75939	captured
-3.7034388	king
-4.442096	consent
-5.484422	assault
-5.0403924	eloquent
-3.262683	give
-4.3261766	cup
-4.1592965	tea
-3.1464171	moment
-5.3175793	propos
-3.5186052	added
-2.9932566	again
-2.9309804	am
-4.214637	expecting
-2.935325	two
-4.172981	interesting
-3.1737902	men
-4.5098586	le
-4.799501	vicomte
-3.2186053	de
-5.52714	mortemart
-4.5013156	connected
-6.313484	montmorencys
-3.2053528	through
-6.313484	rohans
-3.674135	best
-4.744328	families
-4.6574135	genuine
-6.313484	emigres
-4.172981	ones
-3.4679751	also
-3.9580786	abbe
-5.947553	morio
-4.3205614	profound
-5.688345	thinker
-3.6785655	received
-3.185896	heard
-4.088429	delighted
-3.8004036	meet
-2.6740136	them
-4.708812	studied
-5.120527	carelessness
-4.1050916	occurred
-3.4900727	question
-3.781453	chief
-3.8327389	visit
-5.688345	dowager
-4.2279544	baron
-6.0854983	funke
-4.488808	appointed
-4.2730427	secretary
-4.8079877	vienna
-4.663515	accounts
-4.07081	creature
-4.3584323	obtain
-4.191233	post
-3.4884272	son
-3.5754247	others
-2.491521	were
-3.796213	trying
-4.6224995	secure
-3.4022992	almost
-3.8796396	closed
-2.9697456	eyes
-5.0552797	indicate
-3.6980827	anyone
-3.6666436	else
-3.2194886	right
-5.7588334	criticize
-4.1850634	desired
-4.006715	pleased
-4.8436975	recommended
-3.8756154	sister
-4.29091	dry
-4.853103	mournful
-4.377091	named
-4.3676615	assumed
-4.531982	sincere
-4.5013156	devotion
-4.0176864	respect
-4.484718	mingled
-4.8166437	sadness
-3.218826	every
-2.8251903	time
-4.265605	mentioned
-4.744328	illustrious
-5.843022	patroness
-4.0584307	majesty
-5.4098406	deigned
-3.776642	show
-6.1838727	beaucoup
-5.086679	clouded
-2.9721153	over
-3.7227232	silent
-3.1415868	looked
-4.6396055	indifferent
-5.688345	womanly
-6.1838727	courtierlike
-5.346209	quickness
-5.070696	tact
-4.799501	habitual
-3.423696	both
-5.843022	rebuke
-4.75939	daring
-3.381586	done
-3.0765095	same
-4.914265	console
-3.3701787	since
-3.065827	came
-3.6408126	everyone
-5.2907205	enraptured
-5.843022	amazingly
-3.8318324	beautiful
-4.009432	bowed
-5.1032734	signify
-4.4135313	gratitude
-3.6580637	often
-3.5315614	continued
-2.9226427	after
-3.7047882	short
-4.484718	pause
-3.8816657	drawing
-4.1573763	nearer
-5.3768606	amiably
-5.7588334	topics
-4.201715	ended
-2.903113	come
-4.442096	intimate
-6.1838727	unfairly
-4.936729	joys
-3.1194367	life
-4.9484124	distributed
-3.0481892	why
-4.108502	fate
-3.5734224	given
-2.998142	such
-4.085172	splendid
-3.6028626	children
-4.167063	anatole
-5.1032734	youngest
-5.0259986	admitting
-5.574523	rejoinder
-4.265605	raising
-4.6574135	eyebrows
-4.8344913	appreciate
-3.6514394	less
-4.708812	deserve
-3.776642	smiled
-5.0120664	ecstatic
-3.5684571	ca
-3.6264722	help
-6.313484	lavater
-4.555293	lack
-5.688345	bump
-6.313484	paternity
-4.361487	joke
-3.6654074	mean
-3.97537	serious
-3.5704365	talk
-4.7749925	dissatisfied
-4.4533114	younger
-4.1933093	ourselves
-3.0370102	its
-4.3347387	melancholy
-4.903455	pitied
-3.4621387	answered
-4.8166437	significantly
-4.464824	awaiting
-3.8345573	reply
-4.5013156	frowned
-3.1530056	last
-3.118735	father
-2.7282567	their
-4.3932767	education
-3.311198	turned
-4.862717	fools
-4.091711	hippolyte
-4.053878	quiet
-4.113669	fool
-4.5850253	active
-4.5185733	difference
-3.1404796	way
-4.505566	animated
-3.8484433	usual
-4.998567	wrinkles
-3.8579535	mouth
-4.0303707	clearly
-4.5274663	revealed
-3.146978	something
-4.3802805	unexpectedly
-4.695381	coarse
-4.3261766	unpleasant
-4.468731	born
-4.4384212	reproach
-3.3624299	looking
-5.2415247	pensively
-4.396588	faithful
-6.1838727	bane
-4.0275197	cross
-4.036129	bear
-4.0463943	explain
-3.342613	myself
-4.3645635	helped
-5.086679	resignation
-4.4066744	cruel
-4.2534847	gesture
-5.52714	meditated
-4.663515	marrying
-5.843022	prodigal
-3.0396318	asked
-4.9484124	maids
-5.3768606	mania
-5.843022	matchmaking
-4.4384212	weakness
-3.24498	yet
-4.1497793	unhappy
-4.5185733	relation
-4.1206546	yours
-3.393961	princess
-3.65504	mary
-5.574523	bolkonskaya
-4.108502	memory
-5.265426	perception
-5.947553	befitting
-3.460981	world
-4.373925	indicated
-3.965405	movement
-4.4495406	considering
-4.3405423	information
-3.704113	evidently
-4.012166	unable
-4.722672	check
-4.197492	sad
-4.396588	current
-3.862788	thoughts
-5.52714	costing
-3.5026174	thousand
-4.663515	rubles
-3.8456304	year
-3.5582113	five
-4.2883115	goes
-4.488808	presently
-4.560109	fathers
-3.9791665	rich
-5.574523	stingy
-4.255882	lives
-3.7995622	country
-4.265605	bolkonski
-4.545818	retire
-3.6449144	army
-3.255659	under
-3.826434	late
-5.484422	nicknamed
-4.208128	clever
-4.9484124	eccentric
-4.4100895	bore
-3.550564	girl
-3.4790843	brother
-3.9592912	married
-4.2705493	lise
-6.313484	meinen
-4.569905	lately
-3.7887702	kutuzov
-2.9584508	here
-3.7806473	listen
-3.5943952	taking
-3.6641748	reason
-5.1768255	downwards
-4.541157	arrange
-3.998664	affair
-3.1889758	most
-4.355399	devoted
-5.947553	f
-4.07873	village
-4.0107965	elder
-3.9766316	mine
-4.722672	writes
-4.560109	reports
-3.4084034	want
-5.1973395	familiarity
-3.9741118	easy
-4.5274663	grace
-4.221245	peculiar
-3.7855027	raised
-4.985475	swung
-4.736989	fro
-3.6142325	lay
-3.1155913	back
-4.522997	armchair
-3.1933246	another
-4.023278	direction
-6.313484	attendez
-4.9604187	reflecting
-3.0993664	young
-3.3530092	wife
-4.208128	arranged
-4.925352	behalf
-4.278073	start
-5.4455323	apprenticeship
-3.1320844	room
-4.377091	gradually
-4.708812	filling
-4.3122716	highest
-4.590185	assembled
-3.2250504	people
-6.1838727	differing
-5.3175793	widely
-4.07873	age
-4.080332	character
-4.751794	alike
-4.241694	circle
-4.306832	belonged
-4.2961526	helene
-4.2883115	wore
-4.028943	ball
-3.934513	dress
-5.574523	badge
-4.791177	youthful
-5.843022	femme
-4.8929067	plus
-6.313484	seduisante
-6.1838727	petersbourg
-3.4884272	during
-4.2755504	previous
-3.9741118	winter
-5.484422	pregnant
-2.9383228	go
-3.6502457	large
-5.7588334	gatherings
-3.6753962	small
-5.574523	receptions
-4.4066744	introduced
-3.413211	many
-4.8929067	fascinating
-3.3022804	woman
-3.4652417	each
-4.088429	arrival
-3.3264802	seen
-4.4929376	aunt
-4.751794	gravely
-4.541157	conducted
-3.723428	lady
-4.799501	bows
-4.744328	ribbon
-4.2168283	cap
-5.120527	sailing
-3.3316007	soon
-4.1033964	guests
-3.135168	began
-4.028943	slowly
-3.6753962	turning
-4.1953955	visitor
-3.4355297	name
-3.1215487	left
-4.555293	performed
-4.6396055	ceremony
-4.695381	greeting
-4.6224995	cared
-3.8158338	observed
-4.985475	greetings
-4.4971066	solemn
-3.887802	interest
-4.903455	approval
-4.203842	health
-3.9508736	thank
-4.5505295	prevented
-4.304137	showing
-4.488808	impatience
-3.9766316	sense
-4.5799265	relief
-3.262927	having
-5.6277156	vexatious
-3.9933784	duty
-3.6214232	return
-3.4762802	brought
-3.5030417	work
-4.736989	velvet
-4.4609528	bag
-3.9299495	pretty
-4.343473	upper
-4.736989	lip
-4.505566	delicate
-3.7312574	dark
-4.862717	perceptible
-4.091711	teeth
-4.265605	lifted
-5.1973395	sweetly
-3.7726736	especially
-4.541157	occasionally
-3.7750504	drew
-4.067682	lower
-3.6538365	case
-4.468731	thoroughly
-4.799501	attractive
-6.1838727	shortness
-3.192285	seemed
-4.07081	special
-3.9920669	form
-4.0053625	beauty
-4.9604187	brightened
-3.739963	sight
-3.3844852	mother
-3.6007302	full
-4.208128	carrying
-4.688818	burden
-4.5013156	lightly
-4.278073	dull
-5.843022	dispirited
-3.9791665	company
-3.6685042	talking
-3.1747863	felt
-3.923193	talked
-3.1596954	saw
-4.085172	bright
-4.6574135	constant
-4.7671213	gleam
-3.5789506	white
-4.708812	specially
-4.7297716	amiable
-4.484718	mood
-3.043742	day
-3.4996576	table
-4.2755504	quick
-4.799501	swaying
-3.715737	steps
-6.0854983	workbag
-3.7227232	arm
-4.541157	gaily
-4.8166437	spreading
-3.4917245	sat
-3.5794568	near
-4.3347387	silver
-4.903455	samovar
-3.7334175	doing
-3.7937179	pleasure
-3.3916547	herself
-3.64965	around
-5.346209	displaying
-4.1206546	addressing
-3.684329	present
-4.6454606	wicked
-4.708812	trick
-4.791177	hostess
-3.9855688	wrote
-3.2263958	quite
-4.399924	badly
-3.969115	dressed
-4.1871104	spread
-3.6508422	arms
-5.3175793	dainty
-4.29091	gray
-6.1838727	girdled
-4.3523865	broad
-4.073961	below
-6.313484	soyez
-6.1838727	tranquille
-5.4455323	prettier
-3.2865212	voice
-3.3848085	general
-3.5835266	husband
-5.947553	deserting
-3.2281964	going
-3.8550785	killed
-4.2883115	wretched
-3.7718842	waiting
-4.343473	delightful
-3.5347474	next
-5.3768606	arrivals
-4.5799265	stout
-4.541157	heavily
-4.3584323	built
-3.710913	hair
-4.669704	spectacles
-4.744328	fashionable
-5.947553	ruffle
-4.5274663	brown
-3.9716063	coat
-5.3175793	illegitimate
-4.663515	bezukhov
-5.7588334	grandee
-5.157237	catherine
-4.0983496	dying
-3.4469478	moscow
-4.26807	military
-4.8436975	civil
-3.8237596	service
-3.5311081	returned
-4.2705493	abroad
-3.0653615	where
-4.799501	educated
-5.070696	nod
-5.574523	accorded
-4.985475	lowest
-5.7588334	hierarchy
-3.804635	spite
-3.2142155	look
-4.203842	anxiety
-3.7586799	fear
-6.1838727	unsuited
-3.2758205	place
-3.217064	pierre
-4.085172	enter
-3.6508422	certainly
-3.587635	rather
-5.2415247	bigger
-3.0252628	other
-5.0552797	reference
-4.872549	shy
-5.574523	observant
-4.484718	distinguished
-3.5388784	monsieur
-4.998567	exchanging
-4.3405423	alarmed
-3.9368129	glance
-4.049372	murmured
-5.346209	unintelligible
-4.2755504	search
-4.167063	acquaintance
-4.237066	alarm
-4.8826084	justified
-3.0942006	away
-3.5809784	hear
-4.172981	speech
-4.8929067	dismay
-4.8079877	detained
-2.9601507	yes
-5.0259986	scheme
-5.1768255	perpetual
-3.998664	peace
-3.9198537	hardly
-5.3768606	feasible
-4.7671213	rejoined
-4.744328	attend
-4.457115	duties
-4.373925	committed
-5.1768255	reverse
-4.037581	act
-6.313484	impoliteness
-3.954461	finished
-3.7363145	speaking
-4.1497793	bent
-4.044913	big
-3.5871193	feet
-4.283162	apart
-4.751794	explaining
-4.488808	reasons
-3.745865	thinking
-4.050869	plan
-5.688345	chimerical
-3.7178211	later
-3.450696	got
-4.4929376	rid
-4.8079877	behave
-4.2487297	resumed
-3.9716063	watch
-3.619198	point
-3.1706183	might
-4.11194	happen
-4.7671213	flag
-5.7588334	foreman
-5.2907205	spinning
-5.0552797	mill
-3.2883306	hands
-5.6277156	notices
-6.0854983	spindle
-3.64023	stopped
-6.313484	creaks
-4.176971	makes
-4.019078	noise
-3.0345485	should
-5.6277156	hastens
-4.5649796	machine
-4.4533114	proper
-4.5365453	motion
-3.7920623	moved
-4.1441674	approaching
-4.1933093	group
-4.2705493	slight
-6.313484	rearrangement
-3.6219814	kept
-6.1838727	conversational
-4.8166437	steady
-4.3290124	regular
-4.3376307	amid
-4.7020445	cares
-4.1206546	evident
-3.9766316	anxious
-3.998664	approached
-3.449568	passed
-3.495047	whose
-4.5274663	center
-4.972766	attended
-4.791177	intellectual
-4.472673	lights
-4.3318663	gathered
-6.313484	toyshop
-3.690824	afraid
-4.8166437	missing
-3.6332965	seeing
-4.0404987	faces
-3.4251134	stood
-4.189167	opportunity
-4.23477	express
-4.4135313	views
-4.1592965	fond
-5.2907205	swing
-6.1838727	spindles
-5.688345	hummed
-4.9484124	steadily
-6.313484	ceaselessly
-4.0218735	sides
-3.8123572	beside
-4.7749925	elderly
-4.0983496	thin
-5.6277156	careworn
-4.208128	brilliant
-4.1188974	settled
-2.7729163	into
-3.1757846	three
-4.669704	groups
-4.628127	chiefly
-5.157237	masculine
-3.9568694	formed
-5.574523	grouped
-4.736989	rosy
-4.715687	plump
-3.8608477	third
-4.2393737	soft
-4.9604187	polished
-4.708812	manners
-5.7588334	celebrity
-5.157237	modestly
-3.7617507	placed
-4.611459	disposal
-3.3071218	found
-4.237066	obviously
-4.7830095	serving
-4.688818	treat
-6.313484	maitre
-5.070696	serves
-4.5013156	choice
-4.7830095	delicacy
-4.100025	piece
-4.5141945	meat
-4.3645635	kitchen
-4.1331573	eat
-4.169027	served
-5.0403924	peculiarly
-5.843022	morsels
-3.6520374	immediately
-4.862717	discussing
-4.165108	murder
-4.9484124	duc
-4.744328	perished
-5.1973395	magnanimity
-4.2234697	particular
-4.265605	hatred
-3.444343	ah
-4.165108	pleasant
-4.2755504	louis
-6.0854983	xv
-3.751096	sound
-4.4458027	sentence
-6.313484	contez
-5.6277156	nous
-5.947553	cela
-5.0259986	courteously
-4.862717	token
-6.0854983	willingness
-5.346209	comply
-4.925352	inviting
-4.799501	tale
-4.606042	personally
-3.962949	whispered
-6.313484	raconteur
-4.7671213	belongs
-5.6277156	choicest
-5.070696	advantageous
-4.468731	style
-5.3768606	joint
-4.998567	roast
-5.2907205	beef
-4.2324862	hot
-4.715687	dish
-3.9484985	begin
-3.8114922	story
-3.3952844	gave
-4.8344913	subtle
-3.658671	sitting
-3.6647906	rose
-5.574523	unchanging
-3.859881	perfectly
-5.0259986	rustle
-5.3175793	trimmed
-5.3175793	moss
-5.265426	ivy
-3.9265583	shoulders
-5.574523	glossy
-4.722672	sparkling
-4.669704	diamonds
-3.016864	made
-5.120527	graciously
-5.0552797	allowing
-5.120527	privilege
-4.8929067	admiring
-4.0303707	figure
-5.688345	shapely
-4.555293	bosom
-4.370782	fashion
-3.0866466	much
-4.5649796	exposed
-3.760981	bring
-6.1838727	glamour
-4.8079877	ballroom
-3.7384999	toward
-4.3318663	lovely
-4.424024	trace
-5.688345	coquetry
-3.4896607	appeared
-5.574523	unquestionable
-5.2415247	victorious
-5.1973395	diminish
-4.0346823	effect
-4.14603	dropped
-4.6759825	startled
-4.1033964	extraordinary
-3.202155	took
-4.073961	seat
-4.044913	opposite
-5.0259986	beamed
-3.141402	upon
-3.387404	madame
-3.6293027	doubt
-5.0259986	ability
-4.4929376	audience
-5.0120664	smilingly
-5.6277156	inclining
-4.5505295	rested
-4.2730427	bare
-4.751794	unnecessary
-4.07873	waited
-3.233643	told
-4.862717	upright
-4.255882	glancing
-4.744328	altered
-4.464824	shape
-4.4609528	pressure
-5.947553	readjusted
-4.346424	diamond
-5.346209	necklace
-5.3175793	smoothed
-4.862717	folds
-4.4929376	whenever
-4.251101	produced
-3.9817162	glanced
-3.1023943	once
-4.688818	adopted
-5.4098406	relapsed
-4.574887	radiant
-3.6408126	followed
-3.7027655	wait
-4.370782	fetch
-4.7297716	merrily
-4.067682	asking
-4.346424	joined
-4.0135393	moving
-3.885747	chair
-3.7970479	close
-4.5185733	hers
-5.843022	charmant
-4.8079877	surprising
-5.0552797	resemblance
-3.527499	fact
-4.7671213	exceedingly
-4.7830095	ugly
-4.343473	lit
-4.7830095	joyous
-5.7588334	classic
-5.843022	dulled
-6.1838727	imbecility
-5.1768255	sullen
-3.828226	body
-4.208128	weak
-4.255882	nose
-5.21887	puckered
-5.1973395	vacant
-5.346209	wearied
-5.21887	grimace
-3.989456	legs
-3.5835266	fell
-4.6338286	unnatural
-5.0259986	positions
-5.0259986	ghost
-4.2279544	hastily
-5.688345	adjusting
-5.484422	lorgnette
-4.7830095	instrument
-3.6629457	fellow
-4.2393737	astonished
-5.4098406	narrator
-4.7749925	shrugging
-3.223709	because
-4.3261766	hate
-4.4609528	stories
-3.90034	showed
-4.0261016	meaning
-4.0107965	uttered
-5.4455323	hearers
-3.674765	sure
-3.5515127	whether
-4.998567	witty
-4.151666	stupid
-4.4135313	color
-6.313484	cuisse
-6.313484	nymphe
-6.313484	effrayee
-3.4851546	called
-4.5505295	silk
-4.8344913	stockings
-5.120527	neatly
-5.070696	anecdote
-3.563548	gone
-4.985475	secretly
-3.849385	paris
-3.9176419	mademoiselle
-4.791177	george
-3.1138546	house
-4.4971066	bonaparte
-4.5649796	enjoyed
-5.070696	actress
-5.52714	favors
-3.8354692	presence
-3.73777	napoleon
-3.6175365	happened
-3.90034	fall
-5.0120664	fainting
-4.791177	fits
-3.8950717	subject
-3.7563908	thus
-4.0204735	mercy
-3.8676767	latter
-4.8254757	spared
-5.2415247	subsequently
-5.4455323	repaid
-3.50989	death
-5.4098406	rivals
-4.0162997	recognized
-3.9426162	ladies
-4.258292	agitated
-4.8254757	inquiring
-4.9604187	sticking
-4.972766	needle
-5.843022	testify
-5.1973395	fascination
-4.8826084	appreciated
-4.6396055	praise
-5.3175793	gratefully
-4.012166	prepared
-4.4533114	continue
-5.7588334	watchful
-3.8409822	eye
-3.8796396	noticed
-4.3405423	loudly
-5.3175793	vehemently
-4.377091	hurried
-4.853103	rescue
-4.315017	managed
-4.853103	balance
-3.8211014	power
-4.170999	interested
-4.872549	eagerness
-5.265426	pet
-4.590185	theory
-4.0135393	listening
-4.2755504	eagerly
-4.306832	naturally
-5.7588334	disapproved
-4.5850253	rights
-3.591262	saying
-4.169027	powerful
-4.8166437	nation
-6.1838727	barbaric
-6.1838727	disinterestedly
-4.925352	alliance
-3.9568694	object
-5.574523	maintenance
-3.8826823	beginning
-4.6224995	severely
-4.396588	italian
-3.6514394	russian
-5.4455323	climate
-4.14603	instantly
-3.923193	changed
-6.0854983	offensively
-5.947553	sugary
-4.925352	conversing
-3.7020936	women
-4.903455	enchanted
-5.2907205	brilliancy
-4.903455	wit
-4.8929067	culture
-4.8929067	feminine
-4.4384212	letting
-3.915441	escape
-5.843022	conveniently
-3.6766613	keep
-4.6224995	observation
-4.682353	larger
-3.4556174	andrew
-4.039037	handsome
-4.985475	medium
-4.221245	height
-4.258292	firm
-6.313484	clearcut
-4.424024	weary
-4.6396055	bored
-4.669704	measured
-3.8676767	step
-4.069243	offered
-4.484718	striking
-4.791177	contrast
-5.157237	tiresome
-3.5103219	among
-5.1768255	tedious
-4.791177	distorted
-5.2907205	screwing
-5.138494	scanned
-6.1838727	stressing
-5.0403924	syllable
-4.3177805	frenchman
-4.090067	ashamed
-4.914265	deprive
-6.1838727	andre
-5.4098406	coquettish
-3.907825	manner
-4.0478806	telling
-5.157237	screwed
-4.090067	watched
-3.8029375	glad
-4.722672	affectionate
-4.669704	expressing
-4.616944	annoyance
-4.853103	whoever
-4.396588	touching
-4.791177	beaming
-3.723428	kind
-3.1863053	great
-4.221245	supper
-3.1520581	may
-3.887802	low
-4.541157	disturb
-4.914265	continuing
-3.64023	impossible
-3.7945478	laughing
-4.3405423	pressing
-3.6798398	need
-3.1348042	let
-3.8184597	pass
-4.0346823	excuse
-3.9484985	holding
-4.8079877	sleeve
-4.3676615	friendly
-4.1995983	prevent
-4.0630317	rising
-4.2883115	unfortunate
-5.843022	deprives
-5.947553	obliges
-4.914265	interrupt
-4.0149174	sorry
-3.4559984	leave
-5.21887	enchanting
-4.0771346	party
-4.688818	chairs
-4.442096	shone
-5.7588334	radiantly
-3.9907596	gazed
-5.086679	rapturous
-3.9716063	passing
-3.966638	seized
-5.4455323	educate
-4.001331	month
-4.574887	connection
-4.258292	hurriedly
-4.872549	overtook
-4.715687	anteroom
-5.120527	affectation
-4.219031	kindly
-4.0463943	boris
-4.628127	hurrying
-3.9243119	remain
-3.6142325	boy
-3.8550785	although
-3.8391368	listened
-4.9484124	reluctantly
-4.8344913	politely
-5.4455323	ingratiating
-5.3768606	appealing
-4.3405423	cost
-5.0259986	transferred
-4.1592965	guards
-3.9265583	difficult
-4.663515	advise
-4.7671213	appeal
-5.6277156	rumyantsev
-5.7588334	golitsyn
-5.52714	drubetskaya
-4.472673	belonging
-3.0922172	long
-3.6219814	lost
-4.0107965	former
-5.3768606	influential
-5.070696	connections
-4.75939	procure
-4.688818	appointment
-4.8344913	solely
-4.370782	obtained
-4.682353	invitation
-5.484422	embittered
-4.695381	clutched
-4.8079877	tightly
-3.381265	anything
-4.574887	reminded
-4.3932767	friendship
-4.7020445	entreat
-3.939125	sake
-4.2393737	regard
-4.6396055	benefactor
-3.8541243	angry
-4.0404987	promise
-5.484422	kindhearted
-3.6901703	tears
-4.555293	papa
-6.313484	classically
-5.7588334	molded
-4.0983496	shoulder
-3.207713	door
-4.1573763	influence
-3.5120525	however
-4.1830263	capital
-6.0854983	economized
-4.3676615	realized
-4.2324862	begged
-6.313484	chary
-4.736989	using
-3.6023285	second
-6.1838727	qualms
-4.306832	conscience
-5.21887	indebted
-4.590185	career
-4.355399	moreover
-5.265426	mostly
-5.1768255	mothers
-4.5365453	minds
-3.876618	until
-4.361487	gained
-3.4867878	end
-5.3175793	insisting
-3.4996576	hour
-3.190214	make
-5.086679	scenes
-4.574887	consideration
-4.396588	mikhaylovna
-4.998567	weariness
-4.23477	prove
-4.1386275	satisfied
-3.8637614	expected
-4.4384212	kindness
-4.985475	faltered
-4.4100895	terms
-4.799501	michael
-5.7588334	ilarionovich
-5.2415247	recommend
-4.29091	adjutant
-3.6050055	wo
-5.947553	pestered
-3.8898666	commander
-5.688345	conspired
-4.722672	sons
-4.936729	adjutants
-4.8436975	au
-4.9484124	revoir
-3.969115	tomorrow
-3.1290224	cried
-3.931086	probably
-4.170999	apparently
-3.946136	forgotten
-4.427579	employed
-5.2415247	arts
-4.872549	artificial
-4.606042	pretended
-3.606081	till
-4.4766507	task
-4.5850253	accomplished
-4.8166437	latest
-5.138494	comedy
-5.947553	coronation
-5.574523	milan
-4.6396055	laying
-5.484422	petitions
-4.8929067	throne
-5.947553	granting
-4.8929067	nations
-5.4455323	adorable
-3.5714297	enough
-5.4098406	whirl
-4.715687	crazy
-3.8106291	straight
-4.925352	sarcastic
-6.313484	donne
-6.313484	gare
-5.1973395	qui
-6.313484	touche
-3.7953796	fine
-4.14603	remarked
-6.1838727	mi
-6.313484	dato
-6.313484	guai
-6.1838727	chi
-6.313484	tocchi
-5.3768606	touches
-4.925352	beware
-4.373925	drop
-3.8004036	glass
-3.820219	run
-5.2415247	sovereigns
-3.7150447	able
-4.4929376	endure
-5.1768255	menace
-4.736989	polite
-4.903455	hopeless
-6.313484	xvii
-3.969115	queen
-6.1838727	elizabeth
-5.7588334	reaping
-4.6224995	reward
-5.688345	betrayal
-6.313484	bourbon
-3.876618	cause
-4.569905	sending
-5.6277156	ambassadors
-5.1973395	compliment
-5.0120664	usurper
-4.925352	sighing
-5.1973395	disdainfully
-3.5398018	position
-4.1995983	gazing
-3.9187465	completely
-5.6277156	tracing
-5.843022	conde
-4.153561	explained
-4.75939	gravity
-5.947553	baton
-6.1838727	gueules
-6.313484	engrele
-6.0854983	maison
-4.4204984	remains
-4.0463943	france
-3.555328	air
-3.5679638	matter
-4.4135313	acquainted
-3.4835277	far
-4.8929067	intrigues
-4.5505295	violence
-5.0259986	exile
-5.574523	executions
-4.4135313	forever
-4.3405423	destroyed
-4.611459	shrugged
-4.3405423	remark
-3.9024656	interrupted
-4.17898	accompanied
-4.5954065	imperial
-3.609866	themselves
-4.3932767	choose
-4.219031	government
-3.8796396	free
-4.2168283	throw
-3.745123	itself
-5.6277156	rightful
-4.3405423	concluded
-5.2907205	royalist
-6.1838727	emigrant
-4.972766	doubtful
-4.8344913	rightly
-5.6277156	supposes
-3.344083	already
-6.0854983	regime
-4.4495406	blushing
-4.396588	breaking
-5.21887	aristocracy
-3.43047	side
-6.313484	buonapartists
-3.9449596	real
-3.796213	state
-4.113669	public
-3.8676767	opinion
-5.138494	aiming
-4.5649796	remarks
-4.125969	path
-4.4806657	glory
-3.960507	follow
-3.7102282	silence
-5.6277156	quoting
-3.5734224	opened
-6.1838727	antechambers
-4.5365453	crowded
-5.52714	partial
-4.151666	ceased
-4.5098586	hero
-5.157237	martyr
-3.907825	heaven
-5.484422	appreciation
-5.688345	epigram
-4.031803	broke
-5.574523	inappropriate
-3.9356616	stop
-4.4204984	execution
-4.442096	necessity
-3.920964	seems
-4.9604187	greatness
-4.722672	fearing
-4.8079877	responsibility
-4.6224995	deed
-5.265426	dieu
-4.715687	mon
-4.0867977	muttered
-4.6338286	terrified
-4.306832	whisper
-4.080332	consider
-5.157237	assassination
-4.75939	shows
-3.6544378	exclaimed
-3.625345	several
-4.0867977	voices
-5.346209	slapping
-4.936729	palm
-3.8961203	merely
-4.715687	solemnly
-4.936729	desperately
-5.484422	bourbons
-4.531982	fled
-3.9299495	leaving
-6.1838727	anarchy
-5.947553	quelled
-4.531982	suggested
-5.3768606	heeding
-4.3676615	eager
-4.3376307	superior
-5.070696	suppressed
-5.7588334	abuses
-4.555293	preserved
-5.138494	equality
-5.947553	citizenship
-4.1953955	freedom
-4.6338286	press
-5.3175793	availing
-4.7830095	commit
-4.722672	restored
-4.2755504	grand
-4.5799265	desperate
-5.947553	provocative
-4.9484124	proposition
-4.28061	extreme
-4.1188974	youth
-6.0854983	regicide
-3.7563908	repeated
-5.843022	rousseau
-6.1838727	contrat
-6.313484	tolerant
-4.019078	ideas
-5.0259986	robbery
-6.1838727	interjected
-4.791177	ironical
-5.4098406	extremes
-3.8219857	important
-5.2907205	emancipation
-5.484422	prejudices
-5.0120664	retained
-4.346424	liberty
-4.7020445	contemptuously
-5.120527	deciding
-4.2705493	seriously
-4.5013156	foolish
-5.947553	discredited
-3.2034314	love
-4.998567	saviour
-5.52714	preached
-4.985475	happier
-4.6338286	amused
-5.0552797	outburst
-4.417001	experience
-5.947553	sacrilegious
-4.862717	exasperated
-4.0835524	convinced
-5.574523	rallied
-4.5274663	forces
-4.7020445	vigorous
-5.2415247	orator
-5.4098406	executing
-4.293523	ordinary
-4.355399	innocent
-6.313484	untried
-5.21887	explains
-6.1838727	brumaire
-6.1838727	imposture
-5.843022	swindle
-4.283162	conduct
-4.2102866	prisoners
-4.903455	africa
-4.3834934	horrible
-3.962949	knowing
-4.7297716	unlike
-4.3676615	grave
-4.17898	gloomy
-5.4455323	instantaneously
-4.616944	replaced
-4.8826084	childlike
-4.555293	silly
-4.555293	forgiveness
-3.9333677	meeting
-5.843022	jacobin
-4.125969	expect
-3.6001987	besides
-5.4455323	statesman
-4.560109	distinguish
-4.925352	acts
-4.3318663	private
-3.4173746	course
-5.086679	chimed
-5.843022	reinforcement
-4.151666	admit
-4.122419	bridge
-5.947553	arcola
-4.5850253	hospital
-5.7588334	jaffa
-4.8826084	justify
-5.1768255	awkwardness
-3.9299495	sign
-3.9804394	started
-3.6941085	making
-4.3318663	signs
-5.0552797	emphatically
-4.3834934	demand
-3.8054862	attention
-5.52714	une
-4.590185	dame
-4.862717	footmen
-3.4847474	behind
-3.6538365	carriage
-4.38673	taste
-4.872549	collecting
-4.1241903	difficulty
-5.2415247	livery
-4.6224995	calls
-5.843022	spluttered
-5.4455323	unfavorable
-4.0835524	persons
-4.037581	wind
-4.028943	hat
-4.853103	contain
-5.843022	gasps
-4.167063	laughter
-5.4455323	agreeably
-5.0259986	ending
-6.313484	unamiable
-4.8254757	insignificant
-4.472673	balls
-5.947553	theatricals
-4.7671213	thanked
-5.688345	soiree
-6.0854983	ungainly
-5.0552797	average
-4.140466	huge
-3.7355886	red
-3.9368129	particularly
-4.424024	agreeable
-3.7255495	held
-4.560109	pulling
-5.574523	plume
-4.695381	restore
-5.574523	inability
-5.138494	converse
-5.947553	redeemed
-3.954461	simple
-4.7297716	modest
-4.361487	christian
-5.4455323	mildness
-5.2907205	indiscretion
-4.4971066	nodded
-3.9046013	change
-4.7749925	opinions
-4.091711	everybody
-4.3932767	unless
-4.936729	including
-4.0261016	hall
-4.914265	helping
-4.1612253	cloak
-5.265426	indifferently
-5.1973395	chatter
-4.278073	stared
-5.070696	fixedly
-6.1838727	eyeglass
-4.260716	catch
-4.569905	match
-5.120527	contemplated
-4.0218735	write
-4.165108	looks
-4.555293	bending
-4.903455	shawl
-4.2534847	finish
-5.1032734	sentences
-5.086679	meaningless
-4.2705493	understanding
-4.361487	wishing
-3.998664	appear
-3.962949	laugh
-5.3768606	downy
-4.5365453	joyfully
-5.138494	snatching
-4.20598	pushed
-4.1033964	aside
-5.484422	wrapping
-5.0403924	intentionally
-5.265426	adjusted
-4.985475	embracing
-5.120527	gracefully
-4.998567	sleepy
-3.9920669	seem
-3.7269695	past
-3.7406964	reached
-4.799501	heels
-5.138494	stumbling
-4.5365453	porch
-3.9741118	following
-6.1838727	princesse
-4.3261766	tongue
-4.9484124	picking
-4.862717	saber
-5.21887	pretense
-3.828226	allow
-3.4687593	sir
-4.5185733	disagreeable
-5.1973395	blocking
-4.4135313	gently
-5.0259986	affectionately
-5.346209	postilion
-4.5365453	wheels
-5.157237	rattled
-3.8531723	laughed
-5.843022	spasmodically
-3.535662	home
-5.086679	cher
-4.125969	nice
-3.5477307	indeed
-5.1032734	tips
-4.1050916	fingers
-5.7588334	chap
-5.265426	airs
-3.9907596	pity
-3.6514394	officer
-4.4204984	gives
-4.3205614	equal
-4.080332	deal
-4.4766507	reaching
-3.9617264	study
-5.265426	shelf
-4.075545	book
-4.2302146	caesar
-6.0854983	commentaries
-4.736989	resting
-4.574887	elbow
-4.044913	reading
-4.073961	middle
-5.688345	mlle
-4.0149174	ill
-4.695381	rubbing
-5.2415247	creak
-4.5649796	waved
-3.4790843	light
-3.619198	possible
-5.3768606	abstract
-4.2857294	everywhere
-4.4971066	thinks
-5.0403924	guardsman
-5.2415247	diplomatist
-5.0120664	momentary
-5.1032734	tucked
-4.4135313	decide
-5.2415247	expects
-3.6315804	ten
-4.936729	tutor
-3.6293027	remained
-3.859881	twenty
-4.998567	dismissed
-4.985475	profession
-4.26807	agree
-3.4723058	letter
-3.4417539	money
-5.1973395	choosing
-3.898225	months
-4.744328	rubbed
-4.1479006	forehead
-5.688345	freemason
-4.914265	referring
-3.6568518	met
-4.039037	nonsense
-3.7970479	business
-3.66172	horse
-3.4009542	against
-4.1067934	greatest
-4.695381	childish
-4.799501	finds
-4.925352	naive
-4.6224995	fought
-4.039037	except
-4.3376307	conviction
-4.903455	wars
-4.903455	ironically
-4.1241903	likely
-4.26807	leading
-4.1050916	shook
-4.736989	waking
-4.3834934	removed
-4.555293	gown
-3.8940258	fresh
-4.663515	elegant
-4.998567	settling
-4.998567	briskly
-6.313484	fussily
-5.947553	argumentative
-5.21887	arguing
-4.715687	embarrassment
-5.2907205	commonly
-4.23477	shown
-5.2907205	intercourse
-4.023278	touched
-3.7348635	live
-4.140466	judge
-4.278073	uncle
-6.1838727	apraksins
-3.9868608	easily
-4.373925	noticing
-4.4806657	starting
-4.0966806	spoken
-6.313484	petulantly
-5.3768606	playful
-4.4384212	plainly
-4.6224995	member
-3.9414494	remembered
-5.7588334	associations
-3.9520662	broken
-4.651396	shudder
-4.009432	surprised
-4.1067934	notice
-3.8579535	someone
-4.1612253	addressed
-5.265426	frigid
-6.1838727	egotists
-5.120527	whim
-4.4100895	goodness
-3.7488465	knows
-4.373925	leaves
-5.1768255	locks
-3.6270368	remember
-3.5769322	friends
-5.843022	querulous
-4.113669	drawn
-3.9067478	giving
-4.541157	joyful
-4.0983496	animal
-6.1838727	indecorous
-5.688345	pregnancy
-5.688345	gist
-4.417001	blushed
-4.0434365	despair
-3.6817582	doctor
-4.695381	tells
-3.6526363	bed
-4.715687	earlier
-4.8166437	quivered
-3.8037853	walked
-3.9508736	surprise
-4.251101	rise
-5.1973395	tearful
-4.998567	entreaty
-5.138494	threat
-3.659888	above
-4.2987976	regret
-3.7571526	six
-3.8579535	ago
-4.0053625	beg
-5.843022	desist
-4.1809983	growing
-3.8826823	cry
-4.1497793	assure
-4.2102866	experienced
-5.346209	outsider
-4.682353	distress
-3.953262	caught
-5.1768255	restraining
-5.3768606	dryly
-4.936729	pitch
-5.3768606	indicates
-4.5141945	patience
-4.3584323	exhausted
-5.0120664	winning
-5.138494	piteous
-5.574523	askance
-4.5649796	timid
-5.7588334	deprecating
-3.9641752	dog
-4.0478806	rapidly
-5.2415247	feebly
-5.947553	wags
-5.138494	drooping
-4.442096	tail
-4.5954065	lifting
-3.3551188	night
-4.468731	kissing
-4.023278	stranger
-4.2102866	continually
-4.3645635	sigh
-4.8344913	newly
-4.972766	decorated
-5.1973395	luxurious
-4.488808	dining
-5.4455323	napkins
-4.8929067	china
-6.0854983	imprint
-6.313484	newness
-5.7588334	households
-5.0552797	halfway
-4.434777	leaned
-4.75939	elbows
-4.370782	nervous
-4.2987976	agitation
-6.1838727	determines
-3.9728572	marry
-4.212456	advice
-4.3493953	capable
-5.688345	irrevocable
-4.309543	mistake
-4.853103	wasted
-5.0120664	trifles
-3.898225	future
-5.3175793	ranged
-4.6224995	lackey
-4.6338286	idiot
-3.760981	different
-4.5649796	apparent
-4.442096	amazement
-4.080332	excellent
-4.574887	rare
-4.4495406	safe
-4.5098586	o
-5.346209	unmarried
-4.32336	mention
-6.1838727	lolled
-4.853103	phrases
-5.3768606	muscle
-4.669704	quivering
-4.069243	excitement
-3.6384861	fire
-4.872549	extinguished
-4.4204984	flashed
-5.070696	lifeless
-5.947553	impassioned
-4.1033964	moments
-5.3768606	morbid
-4.799501	irritation
-4.373925	worked
-4.8344913	goal
-4.2393737	aim
-4.8166437	tie
-5.6277156	chained
-5.138494	convict
-4.113669	lose
-3.888833	strength
-5.4098406	weighs
-5.120527	torments
-4.0569077	rooms
-4.8254757	gossip
-4.695381	vanity
-5.843022	triviality
-4.153561	fit
-5.843022	caustic
-4.3290124	exist
-5.070696	selfish
-4.2487297	vain
-4.8826084	trivial
-4.8436975	colors
-4.7671213	funny
-4.669704	incapable
-4.4384212	highly
-4.6759825	model
-4.853103	perfection
-4.2631536	possessed
-4.3376307	degree
-4.722672	qualities
-5.346209	lacked
-4.3290124	described
-5.265426	treating
-5.2907205	extensive
-3.605543	read
-4.8826084	capacity
-3.7102282	struck
-5.120527	philosophical
-5.265426	meditation
-5.947553	addicted
-4.3899913	regarded
-4.985475	simplest
-4.1331573	relations
-6.0854983	commendation
-4.6338286	essential
-5.6277156	grease
-5.1973395	smoothly
-3.7790408	use
-5.484422	reassuring
-4.3122716	reflected
-5.843022	relaxing
-4.9484124	careless
-4.377091	merry
-4.628127	crimson
-4.3205614	plain
-4.11194	effort
-3.6050055	idea
-5.0552797	consult
-4.872549	superiority
-4.505566	anywhere
-4.799501	visiting
-6.0854983	kuragins
-3.6390667	sort
-4.903455	suits
-5.3175793	debauchery
-5.574523	dissipation
-5.843022	comme
-5.086679	il
-5.6277156	faut
-3.9496844	wine
-5.21887	sharing
-5.138494	dissipated
-5.3175793	planning
-5.2415247	reform
-3.6332965	happy
-4.560109	properly
-5.4455323	aches
-5.7588334	spends
-6.0854983	cloudless
-4.6574135	northern
-4.278073	summer
-3.555807	open
-4.925352	cab
-4.853103	intending
-4.1995983	drive
-4.972766	impossibility
-3.8569932	sleep
-4.3493953	deserted
-3.8898666	street
-4.468731	cards
-4.1953955	generally
-4.3834934	drinking
-6.1838727	bout
-4.708812	finishing
-4.6396055	visits
-4.2961526	recalled
-4.4204984	happens
-4.8166437	passionately
-4.4971066	enjoy
-4.1067934	accustomed
-3.8541243	account
-4.7671213	gathering
-5.3175793	conventional
-4.590185	definite
-5.2907205	considers
-3.684329	dead
-5.265426	dishonor
-5.4098406	indulged
-4.751794	reflections
-6.313484	nullifying
-5.7588334	decisions
-4.5954065	intentions
-5.3175793	barracks
-3.9741118	lived
-4.1850634	lighted
-4.6396055	ascended
-4.2705493	stairs
-4.1367965	empty
-4.669704	bottles
-5.0120664	cloaks
-6.313484	overshoes
-3.907825	lying
-4.4458027	smell
-5.688345	alcohol
-4.29091	sounds
-4.1871104	shouting
-3.898225	distance
-4.170999	visitors
-4.998567	dispersed
-3.9299495	threw
-4.8166437	sly
-4.600692	glasses
-4.2102866	familiar
-5.3175793	growling
-5.346209	commotion
-3.9333677	eight
-4.212456	nine
-4.972766	crowding
-4.5185733	anxiously
-3.6703732	window
-6.1838727	romping
-4.6224995	chain
-4.8436975	bet
-3.5444484	hundred
-6.1838727	stevens
-3.7632945	shouted
-3.9973364	dolokhov
-6.1838727	bruin
-5.0120664	draught
-5.3175793	loses
-4.4533114	fourth
-5.947553	jacob
-4.2102866	bottle
-4.108502	host
-4.129548	tall
-4.541157	linen
-4.403286	shirt
-5.4098406	unfastened
-3.7305398	front
-4.073961	bit
-4.4458027	fellows
-4.085172	petya
-3.7679586	clear
-3.9960132	blue
-4.5954065	drunken
-5.120527	sober
-4.2631536	ring
-6.0854983	bets
-5.6277156	semenov
-4.0463943	regiment
-5.3768606	notorious
-5.4455323	gambler
-6.0854983	duelist
-3.814962	living
-4.1241903	drunk
-4.019078	drink
-4.4135313	drank
-4.628127	brows
-5.0403924	tipsy
-6.1838727	refilling
-5.947553	betting
-5.346209	naval
-5.138494	rum
-4.7749925	outer
-5.688345	ledge
-3.907825	floor
-4.278073	hanging
-4.7020445	pushing
-4.3261766	englishman
-4.431163	distinctly
-4.853103	curly
-4.541157	infantry
-3.998664	officers
-4.616944	mustache
-5.0403924	feature
-4.251101	lines
-5.0552797	remarkably
-5.6277156	finely
-5.086679	curved
-4.2463717	sharp
-5.688345	wedge
-4.2463717	firmly
-4.736989	distinct
-4.7297716	smiles
-4.7671213	corners
-3.6449144	together
-4.611459	resolute
-4.853103	insolent
-4.396588	intelligence
-4.037581	spent
-5.265426	tens
-4.3645635	thousands
-4.914265	footing
-4.5850253	respected
-4.140466	play
-5.138494	games
-3.9056733	nearly
-4.663515	won
-6.313484	clearheadedness
-5.7588334	rakes
-6.313484	scapegraces
-4.4609528	frame
-5.4098406	sill
-4.197492	forced
-5.7588334	flurried
-5.574523	intimidated
-4.6224995	directions
-4.531982	shouts
-3.6804783	gentlemen
-5.947553	swaggering
-5.120527	strode
-5.52714	smash
-5.484422	tugged
-4.1479006	move
-4.715687	smashed
-5.484422	pane
-5.574523	hercules
-6.313484	crossbeam
-5.484422	wrenched
-4.9604187	oak
-5.070696	crash
-6.1838727	bragging
-4.075545	eh
-4.0261016	sky
-4.505566	dawn
-5.6277156	merging
-6.0854983	afterglow
-5.0259986	sunset
-4.3205614	visible
-4.174971	jumped
-4.2987976	onto
-3.6967537	standing
-4.0835524	fifty
-5.843022	imperials
-4.091711	outside
-3.9568694	spot
-5.0120664	stooped
-4.067682	pointed
-5.688345	sloping
-5.0552797	buttons
-5.157237	wager
-5.4098406	hammering
-4.8254757	attract
-3.9449596	pay
-5.1768255	indication
-4.176971	intended
-4.1809983	accept
-4.791177	challenge
-4.8826084	release
-5.0259986	nodding
-5.843022	translating
-4.1331573	lad
-4.569905	hussar
-4.4204984	losing
-4.545818	climbed
-4.3405423	stones
-4.799501	pavement
-4.169027	shut
-5.0552797	awkwardly
-5.6277156	tripping
-4.799501	spurs
-4.628127	placing
-4.1067934	reach
-4.081939	carefully
-4.590185	lowered
-4.6396055	candles
-4.688818	older
-3.8089082	forward
-4.75939	scared
-4.715687	seize
-3.8776228	hold
-4.695381	folly
-4.695381	sensible
-4.2755504	touch
-5.843022	startle
-3.9766316	comes
-5.6277156	meddling
-5.52714	emitting
-5.1032734	separately
-5.120527	compressed
-4.6396055	pick
-4.862717	erect
-4.4533114	staring
-4.914265	sideways
-5.947553	pursing
-3.8796396	corner
-3.915441	wall
-4.38673	hid
-4.3932767	faint
-4.3676615	forgot
-5.484422	fade
-4.208128	horror
-4.067682	thrown
-4.0246873	further
-4.6574135	collar
-4.2302146	higher
-4.396588	trembled
-5.2907205	emptying
-5.6277156	perceptibly
-6.0854983	tilting
-3.5311081	half
-5.0403924	elapsed
-4.972766	backward
-5.2907205	spine
-4.872549	nervously
-4.399924	sufficient
-4.708812	slip
-5.0120664	slipping
-5.6277156	wavered
-4.799501	strain
-5.3768606	clutch
-5.21887	refrained
-3.7978842	covered
-4.085172	aware
-4.616944	stir
-3.721317	pale
-5.52714	smelt
-4.6759825	strongly
-3.9414494	devil
-4.434777	purse
-4.715687	counting
-4.427579	frowning
-4.2234697	wishes
-4.1171474	mad
-5.265426	giddy
-4.3405423	staircase
-5.6277156	banging
-4.2234697	determined
-4.4458027	preparing
-4.8166437	climb
-4.036129	strong
-4.2730427	flying
-4.5185733	manage
-3.723428	ground
-4.541157	dancing
-5.52714	cornet
-4.3205614	staff
-5.574523	endeavors
-5.138494	entreaties
-4.3177805	rostovs
-4.2987976	stayed
-3.7782397	town
-4.427579	darling
-5.843022	bory
-3.9946938	line
-4.472673	childhood
-4.903455	tenth
-4.606042	august
-4.9484124	equipment
-4.3899913	join
-4.2302146	march
-6.313484	radzivilov
-5.4098406	natalia
-5.843022	nataly
-4.4806657	carriages
-3.691479	horses
-4.442096	bringing
-3.6104093	countess
-5.0552797	rostova
-5.843022	povarskaya
-4.7297716	eldest
-4.853103	congratulate
-4.484718	constantly
-4.1953955	succeeded
-5.7588334	relays
-5.086679	oriental
-4.6574135	type
-4.4495406	worn
-6.313484	childbearing
-4.1497793	twelve
-5.843022	languor
-5.6277156	resulting
-4.8079877	inspired
-4.396588	household
-4.1331573	receive
-4.7671213	entertain
-4.505566	inner
-4.484718	receiving
-3.8184597	dinner
-4.4458027	grateful
-4.7671213	ma
-5.52714	chere
-4.26807	slightest
-5.947553	variation
-4.265605	keeping
-4.424024	offended
-4.3676615	cheerful
-5.4098406	jauntily
-4.088429	putting
-4.151666	knees
-5.4455323	enjoys
-4.791177	swayed
-4.3205614	dignity
-5.574523	surmises
-4.3584323	weather
-3.9035323	questions
-3.8114922	bad
-5.843022	unflinching
-5.7588334	fulfillment
-5.138494	stroking
-5.21887	scanty
-5.52714	hairs
-5.1973395	patch
-5.3768606	conservatory
-5.120527	pantry
-4.574887	marble
-4.75939	tables
-4.8254757	eighty
-5.574523	unfolding
-5.3175793	damask
-3.9176419	dmitri
-6.1838727	vasilevich
-5.138494	manager
-4.080332	affairs
-4.176971	enormous
-5.4455323	complacent
-6.313484	lvovna
-5.4455323	karagina
-4.208128	announced
-4.5365453	gigantic
-4.998567	bass
-4.258292	entering
-5.4098406	pinch
-4.001331	gold
-5.120527	snuffbox
-4.309543	portrait
-6.1838727	callers
-4.616944	dresses
-5.265426	rustling
-4.0261016	laid
-6.313484	razumovski
-5.688345	apraksina
-4.75939	interrupting
-5.1032734	mingling
-5.2907205	scraping
-4.8344913	conversations
-4.0983496	mamma
-6.0854983	mantles
-5.1032734	topic
-4.396588	illness
-4.651396	wealthy
-4.5850253	celebrated
-6.1838727	beau
-4.5954065	behaved
-6.0854983	improperly
-4.669704	vexation
-3.9907596	kill
-5.21887	alluded
-4.14603	fifteen
-4.651396	modern
-4.0404987	allowed
-4.0053625	liked
-5.4455323	expelled
-4.1554646	police
-4.791177	chose
-4.8436975	interposed
-3.599668	certain
-4.29091	suffer
-5.3768606	degraded
-4.5098586	ranks
-4.3932767	somehow
-5.2907205	hushed
-4.049372	ordered
-5.21887	brigands
-3.8909025	ivanovna
-6.313484	dolokhova
-4.1154046	worthy
-4.1017075	fancy
-4.1850634	somewhere
-5.843022	actresses
-3.6490552	tried
-4.914265	interfere
-4.541157	tied
-5.086679	policeman
-6.313484	moyka
-5.070696	canal
-4.9484124	swimming
-3.8657148	cut
-4.11194	dreadful
-5.4098406	cyril
-5.52714	vladimirovich
-5.6277156	amuses
-4.5098586	foreign
-4.708812	introduce
-5.0552797	declined
-4.468731	daughters
-4.125969	girls
-6.0854983	inattention
-4.872549	score
-5.2907205	intervened
-4.2168283	knowledge
-4.545818	reputation
-5.574523	handsomer
-4.853103	heir
-3.8037853	die
-5.484422	lorrain
-5.2907205	inherit
-4.2393737	immense
-3.939125	fortune
-4.569905	serfs
-4.2168283	millions
-4.5274663	cousin
-5.484422	godfather
-4.4533114	attached
-3.7348635	arrived
-3.787951	yesterday
-5.1768255	inspection
-4.75939	pretext
-4.081939	hearing
-4.037581	imagine
-6.313484	impersonate
-5.947553	portly
-3.888833	deep
-4.5274663	ringing
-5.6277156	eats
-5.265426	drinks
-4.682353	dine
-5.3768606	ensued
-5.574523	affably
-4.914265	concealing
-4.8826084	distressed
-5.3175793	smoothing
-4.5505295	footsteps
-4.3318663	boys
-3.960507	running
-4.260716	falling
-4.8344913	thirteen
-4.555293	hiding
-5.346209	muslin
-5.265426	frock
-4.5799265	darted
-4.4066744	flight
-4.611459	doorway
-4.998567	student
-4.651396	jacket
-4.1871104	wide
-5.2415247	feigned
-4.8929067	severity
-4.7671213	spoil
-4.9604187	ilya
-5.1032734	returns
-4.998567	heaved
-5.3768606	bodice
-3.587635	black
-4.862717	curls
-4.985475	tossed
-4.9484124	drawers
-4.985475	slippers
-4.8344913	escaping
-4.370782	hide
-4.3290124	flushed
-4.8929067	lace
-6.0854983	mantilla
-4.715687	paying
-4.4971066	severe
-5.947553	fragmentary
-5.2907205	doll
-6.0854983	mimi
-3.4114878	natasha
-4.3177805	utter
-4.1188974	loud
-6.313484	prim
-4.936729	joining
-6.0854983	monstrosity
-6.1838727	sternness
-4.663515	compelled
-4.113669	scene
-3.8961203	suppose
-5.1768255	condescension
-4.0463943	meanwhile
-5.120527	generation
-3.710913	nicholas
-6.313484	undergraduate
-3.861817	sonya
-4.998567	niece
-4.484718	restrain
-3.8806515	within
-5.086679	bounds
-5.2415247	decorum
-5.070696	mirth
-4.6574135	dashed
-5.3768606	impetuously
-4.628127	amusing
-5.843022	scandals
-5.138494	suppress
-4.197492	fair
-4.606042	enthusiasm
-4.399924	failed
-4.399924	related
-4.081939	quietly
-5.843022	humorously
-4.985475	aged
-4.7830095	cracked
-3.861817	across
-4.972766	skull
-4.2631536	shaking
-4.5505295	control
-3.9121606	rushed
-4.343473	fast
-5.3768606	nimble
-4.093361	carry
-4.2393737	returning
-4.2102866	angrily
-4.651396	vexed
-5.346209	program
-4.531982	remaining
-3.5338347	four
-4.611459	slender
-5.4098406	brunette
-4.3376307	tender
-4.998567	veiled
-5.2415247	lashes
-4.129548	thick
-5.843022	plaits
-5.843022	coiling
-4.1573763	twice
-6.1838727	tawny
-5.688345	tint
-4.903455	complexion
-4.75939	graceful
-5.1032734	muscular
-4.053878	neck
-4.3376307	movements
-5.157237	softness
-5.947553	flexibility
-4.791177	limbs
-6.313484	coyness
-4.6454606	reserve
-5.3175793	kitten
-4.914265	promises
-4.125969	cat
-4.663515	passionate
-5.2907205	girlish
-5.2907205	adoration
-3.9356616	single
-3.7648437	instant
-5.3768606	impose
-4.1830263	spring
-4.4766507	energy
-4.125969	pointing
-4.925352	university
-5.843022	archives
-4.744328	department
-4.4458027	hussars
-5.6277156	flaring
-4.708812	shameful
-6.313484	aspersion
-3.6460936	simply
-4.972766	regarding
-5.120527	approbation
-6.0854983	schubert
-4.260716	colonel
-5.21887	pavlograd
-5.4455323	playfully
-3.8898666	stay
-5.4098406	diplomat
-4.38673	clerk
-6.313484	flirtatiousness
-5.574523	feasting
-6.313484	gambols
-4.8166437	display
-6.313484	kittenish
-3.8940258	nature
-6.313484	flares
-4.1809983	heads
-5.484422	ensign
-4.3932767	grant
-4.9484124	elders
-4.3261766	julie
-3.6219814	rostov
-5.947553	arkharovs
-5.2415247	thursday
-4.9484124	flattered
-4.355399	engaged
-4.985475	confidential
-4.9484124	involuntary
-5.120527	stabbed
-3.2849762	heart
-5.1973395	unnaturally
-4.744328	maintain
-4.3493953	vanished
-4.6574135	wear
-4.396588	hearts
-4.872549	sleeves
-6.1838727	cousinage
-6.1838727	dangereux
-6.1838727	voisinage
-6.1838727	cousinhood
-4.283162	dangerous
-4.7671213	neighborhood
-4.9604187	brightness
-4.531982	answering
-4.8344913	rejoice
-4.0835524	greater
-3.885747	joy
-4.799501	depends
-4.1809983	confidence
-4.38673	parents
-4.600692	secrets
-6.313484	confidante
-5.3768606	impulsive
-4.8436975	mischief
-5.947553	youngsters
-5.1973395	solved
-5.7588334	perplexing
-4.669704	volcano
-4.4204984	takes
-3.7822597	truth
-5.0120664	singer
-6.313484	salomoni
-4.862717	lessons
-6.1838727	harms
-4.260716	train
-4.5098586	concerned
-4.039037	occupied
-4.8929067	forbid
-3.9484985	meant
-5.947553	utters
-4.751794	accord
-6.1838727	stricter
-4.688818	differently
-4.427579	vera
-6.1838727	enhance
-3.7262588	therefore
-4.6454606	learning
-5.1768255	appropriate
-3.581996	strange
-4.6224995	wondering
-4.651396	awkward
-4.9604187	exceptional
-5.2415247	denying
-5.070696	splendidly
-5.0552797	winking
-4.8929067	promising
-4.688818	impatient
-4.903455	stamped
-3.7863173	foot
-5.2907205	discreet
-3.73777	quickly
-4.5850253	swiftly
-4.8079877	flower
-5.6277156	tubs
-5.0259986	brushed
-4.403286	dust
-4.7297716	mirror
-4.3014593	examined
-5.21887	peered
-5.265426	ambush
-4.8166437	muttering
-4.8254757	checked
-4.6454606	impulse
-4.1850634	watching
-4.651396	invisible
-5.1768255	experiencing
-4.853103	sobbed
-4.6454606	torture
-4.258292	mere
-4.6759825	pull
-4.2730427	crying
-4.925352	stirring
-3.8608477	scarcely
-4.4495406	breathing
-3.9089048	forgive
-4.8166437	significant
-3.8327389	led
-3.9046013	grew
-4.3347387	confused
-4.3347387	picked
-4.203842	kiss
-4.3523865	attentively
-4.5505295	plants
-4.5505295	closer
-5.6277156	cuffs
-5.0552797	solemnity
-5.843022	inaudibly
-5.4455323	tub
-4.5649796	embraced
-4.600692	clasped
-5.2907205	tossing
-4.5013156	slipped
-6.313484	flowerpots
-3.7632945	please
-4.7297716	fourteen
-4.751794	sixteen
-4.5954065	counted
-4.1809983	satisfaction
-4.799501	adjoining
-4.3177805	tired
-3.8484433	orders
-4.399924	porter
-4.715687	invite
-4.972766	frank
-4.3261766	value
-4.037581	pressed
-4.4135313	hurt
-4.3834934	sooner
-5.1973395	couples
-4.4384212	pair
-5.4098406	scornfully
-5.574523	copying
-4.7749925	verses
-4.1871104	guilty
-4.606042	roused
-5.7588334	inkstand
-3.8029375	minute
-5.6277156	dipping
-4.5850253	pen
-3.953262	wrong
-4.663515	rushing
-5.2415247	lingered
-5.070696	defense
-3.8446968	getting
-5.3768606	warmer
-4.522997	berg
-5.1032734	behavior
-5.21887	behaving
-5.947553	natalya
-6.1838727	ilynichna
-5.947553	behaves
-4.715687	complain
-5.21887	mortified
-4.2257066	slightly
-5.484422	vogue
-5.1768255	bother
-3.7920623	loved
-5.7588334	genlis
-5.346209	nickname
-4.8826084	bestowed
-5.574523	stinging
-5.947553	flirt
-4.258292	rate
-4.541157	upset
-4.8166437	nursery
-4.862717	flock
-4.241694	birds
-5.2907205	irritating
-5.157237	unmoved
-5.157237	scarf
-5.4098406	colder
-4.9484124	calmer
-4.914265	roses
-4.457115	club
-6.0854983	easygoing
-4.472673	hunting
-4.3584323	wonder
-4.5365453	rush
-5.157237	ministers
-4.7671213	astonishing
-4.2168283	possibly
-4.346424	widow
-5.346209	distraction
-5.52714	learns
-4.172981	pride
-5.688345	lawsuit
-4.5799265	taught
-3.9484985	note
-4.4458027	interview
-4.799501	apply
-4.9604187	cadet
-4.125969	agreed
-5.2907205	enthusiastically
-4.464824	forgetting
-4.791177	humiliation
-5.2415247	endured
-4.4766507	gain
-4.5141945	acted
-6.313484	rumyantsovs
-4.07873	paid
-5.1973395	attentions
-5.1973395	overflowing
-5.4098406	amiability
-4.1067934	command
-3.7995622	happiness
-4.7671213	sadly
-4.8079877	dropping
-4.590185	progress
-5.0259986	literally
-5.086679	penny
-5.688345	equip
-4.1871104	handkerchief
-4.708812	assist
-6.1838727	godson
-4.006715	trouble
-3.9741118	filled
-4.8826084	pondered
-4.5013156	sin
-4.8344913	tremendous
-4.0162997	worth
-4.26807	surely
-6.313484	grandees
-4.9484124	stake
-4.715687	practical
-4.5141945	luck
-4.663515	danced
-6.0854983	taras
-6.0854983	distinguishes
-5.7588334	orlov
-4.064576	drove
-4.8254757	straw
-4.751794	courtyard
-4.669704	mantle
-4.488808	timidly
-4.669704	tenderly
-4.8436975	attentive
-4.5799265	coldly
-4.14603	entrance
-5.070696	scrutinizing
-4.600692	rows
-4.936729	statues
-6.0854983	niches
-5.1032734	princesses
-3.90034	excellency
-4.1331573	worse
-5.3175793	imploringly
-4.972766	soothe
-5.086679	rouse
-4.682353	inquiringly
-4.628127	tones
-5.947553	sergeevich
-4.611459	announce
-5.3768606	sullenly
-4.1497793	pulled
-4.32336	bell
-4.3523865	rang
-4.569905	upstairs
-4.682353	downstairs
-4.522997	landing
-5.346209	dyed
-5.4098406	venetian
-5.4098406	carpeted
-5.843022	stimulating
-4.744328	lowering
-4.3645635	doors
-4.555293	apartments
-5.0120664	assigned
-4.9604187	sprung
-5.0403924	bronze
-4.7830095	handle
-4.574887	star
-4.600692	custom
-5.947553	humanum
-5.0552797	est
-6.1838727	errare
-5.3175793	swallowing
-5.688345	r
-5.120527	pronouncing
-4.799501	latin
-4.606042	accent
-5.947553	err
-3.9143448	human
-4.3405423	bow
-4.306832	silently
-4.522997	inquiry
-4.304137	sorrow
-4.1441674	circumstances
-5.120527	unaware
-4.985475	offensive
-3.8706367	fixed
-5.346209	questioningly
-4.9604187	perplexed
-5.3768606	acknowledging
-6.1838727	query
-4.8079877	indicating
-4.5185733	patient
-4.237066	awful
-3.9110727	forget
-4.853103	arranging
-6.0854983	frill
-5.1768255	obligation
-5.0259986	assuming
-4.255882	serve
-6.313484	brusque
-3.9067478	desire
-4.531982	respectfully
-4.7830095	searching
-4.903455	adding
-6.313484	shinshina
-5.1973395	monotonous
-6.313484	unlicked
-4.4384212	absurd
-5.1032734	pathetic
-4.972766	deserved
-5.484422	censure
-3.9804394	hard
-4.6396055	doctors
-5.4098406	suggesting
-3.7334175	ought
-4.628127	thoughtful
-4.2534847	finding
-4.6224995	rival
-4.3261766	hastened
-5.120527	reassure
-4.4533114	affection
-4.5799265	uttering
-4.7297716	assurance
-5.6277156	unconcern
-4.545818	final
-5.3768606	priceless
-4.1573763	absolutely
-4.600692	prepare
-4.2234697	painful
-5.1973395	crisis
-4.346424	delay
-4.903455	welfare
-4.3347387	stern
-4.0434365	length
-5.52714	strikingly
-4.7749925	proportion
-6.1838727	ambling
-4.255882	nurse
-5.4455323	sympathetically
-4.799501	gloves
-5.3768606	occupying
-4.936729	conquered
-4.8436975	depressed
-5.1973395	relieve
-5.4455323	riotous
-3.442123	taken
-5.843022	tying
-5.7588334	escapade
-5.3768606	favorably
-4.669704	disposed
-3.704113	turn
-4.3014593	nevertheless
-5.346209	embroidery
-5.3175793	frames
-4.237066	aloud
-6.313484	embroidering
-5.4455323	differed
-5.484422	mole
-4.4971066	corpse
-6.313484	leper
-4.2257066	precisely
-4.628127	lively
-4.8254757	disposition
-5.265426	evoked
-5.157237	foresaw
-5.0403924	wool
-5.2907205	canvas
-4.903455	refrain
-5.1768255	pattern
-4.293523	recognize
-5.843022	unabashed
-4.985475	physically
-4.7830095	mentally
-4.715687	increase
-4.488808	mental
-4.4929376	sufferings
-5.3175793	hm
-5.2415247	outright
-6.0854983	olga
-4.3205614	busy
-4.6454606	comfortable
-5.138494	causing
-4.5013156	sisters
-4.346424	disturbed
-4.8344913	pacing
-4.396588	stopping
-4.8826084	menacing
-4.862717	gestures
-4.075545	sword
-5.0259986	foe
-5.4455323	glaring
-5.3768606	savagely
-5.3768606	resuming
-4.041965	walk
-5.2907205	indistinct
-5.265426	gesticulating
-5.0552797	scowling
-4.1067934	finger
-4.914265	unseen
-6.0854983	pitt
-4.903455	traitor
-5.4098406	sentenced
-4.427579	imagined
-5.3768606	effected
-4.3645635	crossing
-5.7588334	straits
-5.947553	dover
-4.442096	london
-4.8929067	pronounce
-5.2415247	hearty
-5.070696	disturbing
-4.75939	asks
-4.3376307	considerable
-4.751794	uncomfortable
-5.1973395	sparrow
-4.4495406	hills
-6.1838727	jacquot
-4.1188974	mistaken
-4.744328	deliberately
-4.5799265	bold
-4.488808	attacked
-6.313484	mosquitoes
-4.925352	bees
-4.574887	mixed
-5.157237	relatives
-5.157237	boulogne
-4.5954065	expedition
-4.736989	gets
-4.5850253	channel
-6.1838727	villeneuve
-5.0403924	mess
-4.142313	papers
-4.7749925	parties
-4.688818	scandal
-4.8254757	politics
-4.0723825	companion
-3.859881	afterwards
-5.7588334	outlive
-4.669704	sincerely
-5.0120664	horrid
-5.947553	inadvertently
-6.1838727	disconcerting
-4.853103	flushing
-4.569905	changing
-4.3834934	attitude
-4.197492	avoid
-5.52714	misunderstandings
-4.925352	reckon
-5.120527	clumsy
-4.1479006	shame
-4.201715	fully
-4.346424	ease
-4.531982	rule
-4.7671213	relieved
-6.1838727	onerous
-5.484422	extricated
-4.3122716	situation
-5.7588334	calming
-4.212456	courage
-4.722672	queer
-4.488808	suspected
-4.8344913	advantages
-5.947553	disadvantages
-5.21887	summon
-4.4929376	warmly
-4.7020445	piercing
-5.265426	imaginary
-4.8826084	remembrance
-4.4066744	intelligent
-4.0983496	early
-4.8826084	leads
-4.998567	lonely
-5.1768255	unaccountable
-4.424024	tenderness
-4.431163	spend
-4.361487	precious
-5.947553	nieces
-4.616944	adieu
-4.396588	support
-5.7588334	bonne
-4.611459	anybody
-4.3347387	driven
-5.4098406	applying
-5.2907205	crossly
-3.7421668	minutes
-4.799501	humiliating
-4.7297716	poverty
-4.377091	sorts
-4.3014593	calling
-4.8826084	exaggerated
-5.843022	waddling
-6.0854983	saute
-4.1850634	game
-6.313484	madere
-4.998567	tasted
-6.0854983	ruffling
-4.862717	commands
-4.616944	waistcoat
-5.4098406	bustling
-5.2907205	pocketbook
-5.2907205	cambric
-4.8254757	wiping
-5.157237	hey
-4.531982	obey
-5.1973395	summons
-3.898225	send
-4.2857294	stepped
-4.26807	softly
-5.7588334	deferential
-3.9703588	seven
-5.138494	tattered
-4.431163	dirty
-4.251101	notes
-4.427579	clean
-4.26807	deeply
-4.434777	inform
-4.4066744	uneasy
-4.6224995	breathe
-4.1241903	anger
-4.488808	treasure
-4.695381	departed
-4.722672	causes
-4.1612253	sum
-6.1838727	spendthrift
-5.574523	agitating
-3.4261794	few
-4.2755504	refuse
-4.7830095	blush
-4.7749925	dignified
-4.3290124	guessed
-4.26807	intention
-4.715687	embrace
-5.21887	outfit
-4.4204984	weeping
-4.611459	wept
-4.4384212	base
-3.965405	number
-4.903455	collection
-5.21887	turkish
-5.120527	pipes
-4.4806657	dmitrievna
-6.0854983	akhrosimova
-5.484422	dragon
-4.5185733	wealth
-4.07873	common
-5.574523	plainness
-5.1768255	cities
-4.522997	wondered
-5.7588334	privately
-6.313484	rudenesses
-4.2440267	feared
-4.925352	tobacco
-3.9568694	smoke
-5.484422	manifesto
-5.688345	recruiting
-4.708812	smoking
-5.1768255	smoked
-5.947553	smokers
-4.925352	neighbors
-5.947553	egged
-5.21887	sallow
-5.1768255	civilian
-4.925352	wrinkled
-4.611459	stuck
-5.947553	amber
-6.313484	mouthpiece
-5.6277156	inhaling
-4.998567	bachelor
-5.0552797	shinshin
-5.2415247	condescending
-5.947553	irreproachably
-4.695381	washed
-5.157237	buttoned
-4.651396	pipe
-5.484422	inhaled
-4.8826084	rings
-4.682353	lieutenant
-4.8436975	travel
-5.7588334	teased
-4.75939	occupation
-4.2857294	playing
-5.4455323	boston
-4.7297716	card
-5.4098406	listener
-4.3493953	setting
-5.947553	loquacious
-5.688345	talkers
-5.7588334	tres
-4.688818	honorable
-6.1838727	alphonse
-6.313484	karlovich
-5.346209	mixing
-4.903455	expressions
-5.138494	peculiarity
-4.8929067	vous
-6.313484	comptez
-5.688345	faire
-4.682353	des
-6.313484	rentes
-6.1838727	sur
-4.8436975	income
-4.669704	peter
-4.5954065	nikolaevich
-4.488808	cavalry
-4.9604187	precision
-4.080332	entirely
-4.4384212	direct
-4.472673	bearing
-3.7255495	hours
-4.151666	countenance
-6.0854983	circumstantially
-4.212456	thirty
-4.6574135	obvious
-4.2883115	success
-4.8344913	prominent
-6.313484	vacancies
-4.7671213	occur
-4.4766507	frequently
-5.484422	y
-4.2463717	german
-4.555293	skin
-5.3175793	flint
-5.1032734	proverb
-5.346209	squares
-5.21887	oblivious
-4.488808	comrades
-4.695381	corps
-6.0854983	wartime
-5.2415247	senior
-4.5274663	succeed
-4.9484124	popular
-6.0854983	narrating
-4.600692	suspect
-4.3899913	interests
-5.7588334	prettily
-5.947553	sedate
-5.6277156	naivete
-5.4098406	egotism
-5.6277156	disarmed
-3.5825057	along
-4.606042	wherever
-5.947553	warrant
-5.3768606	patting
-5.4098406	joyously
-6.313484	zakuska
-5.843022	engaging
-4.2324862	food
-4.4458027	guess
-4.5954065	glances
-5.688345	hors
-5.574523	dinnertime
-5.484422	naively
-4.569905	somebody
-5.947553	monosyllables
-4.0950174	curiosity
-5.688345	prank
-6.313484	oui
-5.4455323	non
-6.0854983	inappropriately
-4.722672	recently
-4.505566	exchanged
-5.843022	razumovskis
-4.682353	rough
-5.2415247	oldest
-5.4098406	surveying
-5.52714	leisurely
-4.616944	rolling
-4.8254757	drowned
-5.120527	sinner
-6.0854983	daresay
-4.736989	nowhere
-4.6454606	hunt
-4.4495406	dogs
-6.0854983	nestlings
-4.972766	husbands
-4.5954065	cossack
-5.070696	stroked
-5.6277156	fearless
-4.5141945	gay
-5.947553	scamp
-5.7588334	ruby
-5.3768606	earrings
-5.574523	reticule
-6.0854983	ominously
-4.2755504	favor
-5.52714	expectant
-4.9604187	dearly
-5.688345	prelude
-4.309543	lies
-5.843022	deathbed
-5.484422	astride
-5.574523	tutors
-5.3768606	governesses
-5.4455323	singly
-5.6277156	scraped
-4.5013156	band
-4.7830095	gallery
-4.212456	places
-5.3768606	strains
-5.1032734	clatter
-5.3175793	knives
-5.7588334	forks
-4.1612253	farther
-5.157237	male
-5.843022	midway
-6.0854983	grownup
-4.985475	crystal
-5.843022	decanters
-4.6574135	fruit
-5.346209	vases
-4.853103	ribbons
-5.1768255	busily
-5.843022	neglecting
-5.843022	omitting
-5.7588334	pineapples
-5.843022	redness
-4.4533114	sounded
-4.7020445	louder
-4.590185	ate
-4.8254757	earthly
-5.0259986	heavenly
-6.1838727	soups
-5.138494	turtle
-5.346209	savory
-6.0854983	patties
-5.4098406	wines
-5.21887	butler
-4.464824	thrust
-5.1768255	mysteriously
-4.5365453	wrapped
-4.936729	napkin
-5.947553	madeira
-5.688345	hungarian
-5.484422	rhine
-5.265426	engraved
-5.947553	monogram
-4.722672	plate
-5.120527	random
-4.722672	enjoyment
-4.606042	inclined
-4.5799265	tormented
-4.5098586	jealousy
-4.791177	strained
-5.3175793	nerve
-5.52714	overhear
-4.7671213	governess
-4.7671213	uneasily
-6.313484	resent
-4.751794	dishes
-4.8344913	kinds
-5.4455323	dessert
-4.682353	description
-5.484422	germany
-4.2234697	greatly
-5.947553	quench
-4.8079877	thirst
-5.7588334	greediness
-5.2415247	conscientious
-5.0120664	declaration
-4.9604187	copy
-5.843022	forwarded
-4.972766	courier
-5.346209	deuce
-4.20598	fight
-6.313484	cackle
-6.313484	plethoric
-6.1838727	patriotically
-5.52714	resented
-6.1838727	reasson
-6.0854983	goot
-5.7588334	zat
-5.574523	ze
-5.3768606	declares
-6.313484	manifessto
-6.313484	fiew
-6.313484	wiz
-4.081939	danger
-6.313484	vreatening
-4.5850253	safety
-4.799501	empire
-6.1838727	vell
-5.688345	sanctity
-5.947553	alliances
-5.21887	emphasis
-5.947553	unerring
-4.32336	official
-5.52714	characterized
-4.019078	opening
-5.52714	constitutes
-4.5649796	sole
-4.5954065	absolute
-4.903455	establish
-5.1973395	foundations
-5.2907205	despatch
-4.9604187	create
-3.9999952	condition
-5.484422	attainment
-3.9920669	purpose
-6.313484	vy
-5.574523	tumbler
-6.313484	proverbe
-6.313484	jerome
-5.947553	roam
-5.484422	puckering
-6.313484	convient
-6.313484	merveille
-5.2415247	suvorov
-4.2487297	beat
-6.313484	couture
-6.0854983	suvorovs
-5.265426	je
-6.0854983	demande
-5.157237	un
-5.947553	peu
-4.555293	hollow
-5.947553	ve
-6.313484	vight
-6.313484	plood
-6.0854983	thumping
-6.313484	zen
-6.0854983	vill
-6.1838727	pe
-4.7749925	discuss
-4.914265	dwelt
-6.313484	zere
-4.7297716	discussed
-4.862717	partner
-4.1612253	ears
-5.0403924	intent
-5.1032734	flaming
-6.313484	wineglasses
-4.361487	decision
-5.484422	desperation
-4.569905	facing
-4.2857294	russians
-5.157237	conquer
-4.343473	conscious
-5.7588334	emphatic
-4.2631536	occasion
-5.3768606	approvingly
-4.0463943	inquired
-4.396588	demanded
-5.0552797	exciting
-5.3175793	truce
-5.484422	fret
-4.442096	spare
-3.885747	battle
-3.7541137	carried
-4.7020445	concentrated
-5.0259986	reckless
-4.488808	resolution
-5.843022	contralto
-4.736989	audible
-4.541157	sternly
-4.569905	threatening
-5.4455323	forbidding
-5.1973395	sweets
-4.914265	frown
-4.3122716	fat
-5.346209	threateningly
-4.9484124	uncertain
-6.0854983	sally
-3.73414	care
-4.708812	boldly
-5.574523	saucy
-4.972766	gaiety
-4.8254757	confident
-4.9484124	doubled
-4.221245	ice
-5.574523	pudding
-6.1838727	braved
-4.9484124	cream
-6.313484	carrot
-5.7588334	ices
-4.6396055	screamed
-4.8079877	incredible
-5.1768255	boldness
-6.1838727	smartness
-4.434777	dared
-5.947553	desisted
-5.6277156	pineapple
-4.555293	champagne
-4.744328	seats
-6.0854983	clink
-5.843022	redder
-5.086679	sets
-4.7297716	library
-6.313484	fanwise
-5.346209	nap
-5.7588334	instigation
-5.1973395	clavichord
-5.484422	harp
-4.3014593	request
-5.7588334	variations
-4.7297716	begging
-4.590185	noted
-5.138494	musical
-4.722672	talent
-4.6574135	sing
-4.484718	treated
-4.153561	proud
-5.4455323	brook
-4.113669	chest
-4.05539	passage
-5.0120664	mourning
-4.791177	female
-5.3175793	downward
-5.086679	feather
-3.8816657	top
-5.843022	crumpling
-6.313484	gauzy
-4.663515	pink
-4.695381	sobbing
-4.936729	convulsively
-4.651396	saint
-5.265426	shiver
-5.4455323	drooped
-5.688345	oo
-5.4455323	widened
-5.1768255	wail
-4.2631536	baby
-4.6338286	lift
-4.872549	deeper
-5.3768606	hugging
-4.1367965	week
-3.9165401	paper
-4.998567	envious
-4.9604187	gaining
-4.6338286	difficulties
-6.0854983	metropolitan
-5.2415247	spoiling
-5.2907205	heartless
-5.265426	ungrateful
-4.399924	truly
-4.343473	witness
-4.6759825	willingly
-4.4100895	sacrifice
-5.3175793	consoling
-5.3175793	copied
-4.8826084	sob
-4.628127	bitterly
-5.3175793	hugged
-5.120527	comforting
-5.21887	cousins
-4.8166437	spiteful
-4.8436975	jump
-5.086679	paws
-6.1838727	worsted
-5.947553	crisp
-4.7020445	lock
-5.574523	strayed
-4.6759825	clung
-5.843022	tucking
-4.936729	bony
-4.628127	sang
-6.1838727	quartette
-4.5850253	song
-4.0218735	learned
-6.0854983	nighttime
-4.28061	moon
-4.6574135	glow
-4.163162	sweet
-4.914265	fancies
-5.2415247	wander
-4.427579	thee
-6.0854983	wafting
-4.361487	music
-6.313484	lea
-5.7588334	swells
-4.600692	message
-5.0552797	bliss
-6.313484	unspoilt
-4.8436975	verse
-4.472673	dance
-5.1032734	coughing
-5.484422	musicians
-4.080332	walking
-5.4098406	dancers
-4.5505295	figures
-4.7671213	teacher
-6.1838727	tuning
-4.903455	conspicuous
-5.120527	fan
-4.998567	pose
-6.0854983	fanning
-4.0723825	crossed
-5.6277156	ecossaise
-4.872549	majority
-4.75939	stretching
-5.574523	replacing
-5.688345	purses
-6.313484	pocketbooks
-5.3175793	countenances
-4.251101	somewhat
-5.0552797	ballet
-6.313484	debonair
-5.484422	gallantry
-5.0259986	clapped
-5.843022	violin
-6.1838727	semen
-4.8826084	daniel
-5.7588334	cooper
-4.8166437	strictly
-6.0854983	anglaise
-5.688345	jovial
-3.884723	gentleman
-5.2907205	straightened
-5.157237	toes
-5.0120664	tapped
-5.947553	broadened
-5.7588334	onlookers
-6.1838727	provocatively
-4.7671213	resembling
-4.0332403	peasant
-6.0854983	doorways
-4.736989	domestic
-3.495047	master
-5.070696	eagle
-4.2883115	handed
-4.7749925	spectators
-5.843022	unexpectedness
-5.52714	adroit
-4.998567	maneuvers
-5.1973395	agility
-6.313484	capered
-4.1017075	impression
-5.21887	exertions
-4.9484124	bend
-5.21887	stamp
-4.009432	view
-4.4533114	size
-5.688345	livelier
-6.0854983	evolutions
-5.1768255	urging
-4.258292	couple
-4.8079877	intervals
-4.8079877	faster
-5.21887	whirled
-4.590185	executed
-4.936729	pas
-4.8826084	backwards
-4.4971066	bowing
-5.265426	perspiring
-5.1973395	sweep
-4.6224995	thunder
-5.0120664	applause
-5.3768606	partners
-5.1973395	handkerchiefs
-5.3175793	puffing
-4.8166437	sixth
-5.138494	tune
-5.52714	blundered
-5.2907205	cooks
-4.75939	stroke
-4.464824	pronounced
-5.138494	recovery
-4.751794	mute
-4.545818	confession
-5.484422	communion
-5.3768606	administered
-4.606042	preparations
-4.936729	sacrament
-5.52714	unction
-5.0552797	bustle
-5.4098406	thrill
-4.914265	suspense
-3.9132514	beyond
-4.555293	gates
-6.0854983	undertakers
-4.669704	expectation
-5.138494	expensive
-4.7297716	funeral
-4.2463717	governor
-5.7588334	assiduous
-4.505566	inquire
-4.972766	bid
-4.4971066	farewell
-4.221245	magnificent
-5.4455323	clergy
-5.086679	thinner
-4.9604187	paler
-5.0552797	escorted
-4.3177805	leg
-4.26807	leaning
-4.682353	covering
-5.1768255	unusually
-4.399924	corridor
-4.936729	dimly
-5.0403924	whispers
-6.1838727	expectancy
-5.120527	creaked
-4.75939	limits
-4.1554646	priest
-5.7588334	administer
-5.688345	clerical
-4.628127	title
-4.862717	madam
-5.484422	grizzled
-5.843022	strands
-5.3175793	combed
-4.600692	sixty
-6.313484	sickroom
-4.6574135	feels
-4.7297716	medicine
-5.2415247	boiled
-3.5055974	water
-5.574523	tartar
-6.313484	dere
-5.843022	neffer
-6.313484	gase
-6.1838727	dat
-6.313484	liffs
-6.313484	sird
-6.313484	vo
-4.0584307	according
-4.5505295	instructions
-4.998567	negative
-6.0854983	decorous
-4.5954065	tiny
-4.7020445	lamps
-4.1479006	burning
-5.070696	icons
-4.8079877	scent
-4.2168283	flowers
-6.313484	pastilles
-4.241694	pieces
-4.6224995	furniture
-6.313484	whatnots
-5.346209	cupboards
-5.0552797	quilt
-4.6759825	screen
-4.75939	bark
-4.165108	extremely
-4.5954065	smooth
-5.7588334	varnish
-5.52714	catiche
-5.346209	seating
-5.265426	wearily
-6.0854983	vacated
-4.2393737	warm
-6.313484	stonily
-4.799501	referred
-5.6277156	naming
-4.972766	rigid
-6.1838727	abnormally
-4.009432	directly
-4.169027	emotion
-4.651396	easier
-4.258292	cheeks
-5.484422	twitch
-5.843022	impudently
-5.1973395	lap
-4.293523	resolved
-4.176971	break
-5.843022	semenovna
-5.3175793	theme
-4.3261766	struggle
-6.0854983	testily
-6.313484	mamontov
-5.484422	heirs
-4.936729	definitely
-4.1277547	pray
-5.0259986	merciful
-5.138494	peacefully
-4.5649796	impatiently
-4.3261766	property
-5.120527	wills
-4.442096	estate
-4.744328	clutching
-6.313484	legitimation
-4.606042	services
-4.7020445	granted
-4.5649796	discussion
-4.5505295	seizing
-4.309543	sighed
-4.972766	petition
-5.21887	legitimate
-4.3290124	share
-4.569905	daylight
-4.9484124	legal
-5.138494	overlooked
-6.1838727	sardonically
-6.313484	batard
-4.606042	supposing
-5.574523	translation
-6.0854983	effectively
-6.313484	invalidity
-5.6277156	contention
-5.688345	bastard
-4.7749925	consolation
-5.688345	dutiful
-4.914265	et
-5.574523	tout
-5.4098406	ce
-6.1838727	therefrom
-4.142313	perfect
-4.651396	assume
-6.313484	wrangle
-6.313484	kinswoman
-5.6277156	heiresses
-5.2415247	expert
-6.313484	onufrich
-5.6277156	solicitor
-4.0614924	sudden
-5.947553	transitions
-5.21887	recognition
-4.903455	sacrificed
-5.346209	meanness
-5.1032734	deceit
-4.722672	envy
-4.936729	intrigue
-5.4098406	ingratitude
-6.1838727	blackest
-4.4533114	insisted
-4.853103	twitching
-4.8344913	vile
-5.843022	intriguing
-4.3676615	race
-5.1032734	casually
-5.947553	rectify
-5.120527	injustice
-5.1032734	rendering
-4.488808	risen
-4.1612253	justice
-4.695381	cunning
-4.751794	reasonable
-5.484422	sensibly
-4.4609528	destroy
-5.52714	conscientiously
-5.52714	protege
-5.52714	housemaid
-4.8344913	infamous
-6.313484	wheedled
-4.925352	disgraceful
-5.843022	sophie
-4.14603	repeat
-4.531982	fortnight
-5.3768606	inlaid
-4.998567	portfolio
-4.791177	keeps
-4.5013156	pillow
-5.688345	ignoring
-4.708812	shrieked
-6.313484	worming
-4.663515	containing
-4.531982	accompany
-4.370782	driving
-4.3676615	rolled
-4.075545	windows
-4.457115	comfort
-4.039037	asleep
-4.8254757	woke
-5.2907205	rousing
-4.427579	awaited
-5.947553	tradespeople
-4.3493953	shadow
-5.1768255	pausing
-4.283162	coachman
-4.29091	narrow
-4.05539	stone
-5.843022	lagging
-4.8344913	judging
-4.142313	haste
-4.457115	knocked
-6.0854983	pails
-4.2987976	boots
-5.574523	clattering
-5.688345	evince
-5.7588334	permissible
-4.5098586	afternoon
-5.6277156	wrongs
-4.560109	agony
-4.38673	trust
-4.5141945	stronger
-5.346209	meekly
-3.9449596	servant
-4.998567	knitting
-5.265426	stocking
-4.0950174	existence
-5.1973395	decanter
-5.120527	tray
-4.751794	instinctively
-5.21887	slammed
-3.9842808	action
-4.688818	composure
-5.2415247	depicted
-4.590185	guide
-5.346209	evinced
-5.0120664	faintly
-5.3175793	sumptuous
-4.355399	approach
-4.853103	bath
-5.3768606	spilled
-4.75939	carpet
-4.998567	deacon
-5.843022	censer
-4.862717	tiptoe
-4.914265	bust
-4.7671213	whispering
-4.936729	decisive
-5.070696	admission
-4.370782	assured
-4.751794	casting
-4.2234697	rapid
-5.3768606	confessor
-4.8826084	glided
-6.1838727	amble
-4.012166	exactly
-4.8166437	seeming
-4.4609528	grow
-4.715687	smaller
-4.695381	blessing
-4.9604187	priests
-4.1171474	cast
-4.998567	upwards
-4.628127	closing
-4.708812	respectful
-3.9165401	disappeared
-6.1838727	monitress
-5.4455323	implicitly
-5.1768255	awe
-5.843022	servility
-5.120527	deference
-5.0120664	glove
-4.134973	obliged
-5.7588334	rite
-4.1154046	bound
-5.947553	symmetrically
-4.903455	egyptian
-4.5850253	statue
-4.688818	yield
-5.4098406	guiding
-5.4098406	majestically
-4.7297716	ascertain
-4.5365453	hesitated
-4.170999	blow
-4.7297716	perplexity
-4.75939	grasped
-5.1768255	jerked
-5.688345	deacons
-4.129548	servants
-5.0120664	discharge
-4.682353	divine
-5.0552797	inexhaustible
-4.744328	stepping
-4.431163	permission
-4.464824	divided
-4.560109	columns
-5.1032734	arch
-4.17898	walls
-4.212456	hung
-5.3175793	persian
-5.1032734	carpets
-5.4098406	mahogany
-5.21887	bedstead
-4.6396055	brightly
-5.0259986	illuminated
-4.0303707	church
-5.0259986	gleaming
-4.972766	pillows
-4.998567	freshly
-4.8929067	waist
-4.113669	green
-4.903455	majestic
-5.3175793	mane
-5.0120664	lion
-5.7588334	characteristically
-5.4098406	ruddy
-4.791177	wax
-5.52714	taper
-5.574523	forefinger
-5.2907205	thumb
-4.6396055	glittering
-5.6277156	vestments
-5.688345	tapers
-5.070696	conducting
-5.086679	vicious
-5.0552797	declaring
-5.157237	meek
-5.086679	sorrowful
-4.872549	carved
-5.265426	upward
-5.52714	piety
-4.872549	sentiments
-6.1838727	menservants
-4.3122716	separated
-5.7588334	chanting
-5.086679	sighs
-5.4455323	shuffling
-5.0120664	distracted
-4.590185	observing
-4.2755504	hidden
-5.1032734	awhile
-4.600692	resist
-5.0120664	temptation
-4.972766	stooping
-4.925352	beckoned
-5.947553	implying
-4.590185	foreigner
-5.4098406	differences
-4.853103	approved
-4.1331573	sick
-5.2907205	noiseless
-5.070696	vigor
-5.0403924	pulse
-5.0259986	interval
-5.843022	intimated
-5.3175793	silken
-5.574523	hangings
-5.086679	occurrence
-4.590185	happening
-5.843022	congratulating
-5.1973395	immovable
-4.2102866	surrounded
-4.862717	judged
-5.2415247	cautious
-5.2907205	underneath
-4.037581	heavy
-5.2415247	bearers
-4.3932767	weight
-4.872549	glimpse
-4.925352	backs
-5.0403924	uncovered
-5.947553	armpits
-6.313484	leonine
-4.2279544	brow
-5.947553	cheekbones
-5.4455323	sensual
-5.21887	disfigured
-5.157237	helplessly
-5.3768606	uneven
-4.3205614	gaze
-5.52714	stately
-4.688818	completed
-5.2907205	propped
-5.3768606	palms
-4.468731	significance
-4.651396	mortal
-4.791177	suggestion
-6.1838727	boned
-5.1973395	fleshy
-4.736989	stirred
-5.3768606	obediently
-5.947553	symmetrical
-4.4806657	utmost
-4.5013156	lasted
-4.998567	muscles
-4.258292	increased
-4.5799265	realize
-4.7671213	issued
-4.6396055	hoarse
-5.346209	fruitless
-4.050869	terror
-5.265426	flitted
-4.278073	brain
-6.0854983	refractory
-4.606042	feeble
-6.313484	deride
-5.7588334	helplessness
-4.2487297	unexpected
-5.947553	tickling
-5.688345	dimmed
-5.3175793	dozing
-5.0120664	sympathetic
-5.21887	squeeze
-5.3768606	refreshing
-4.998567	sleepless
-4.8344913	delicious
-4.7749925	restrained
-5.574523	sipping
-5.1768255	chinese
-6.313484	handleless
-4.972766	circular
-5.484422	fortify
-5.3175793	mirrors
-4.6224995	pearls
-5.346209	brilliantly
-4.708812	disorder
-5.947553	motley
-5.086679	throng
-6.0854983	merrymaking
-6.313484	somberly
-4.306832	bedroom
-4.041965	excited
-4.611459	permit
-5.52714	speakers
-5.688345	blandly
-5.265426	impressively
-5.4098406	preventing
-4.468731	needs
-4.791177	repose
-4.9604187	worldly
-5.947553	flabby
-5.4098406	heavier
-4.468731	violently
-4.9484124	pleases
-4.2234697	writing
-4.283162	sprang
-5.0403924	bar
-5.0552797	implore
-5.3175793	en
-5.52714	conjure
-4.3802805	efforts
-4.8826084	flattering
-6.0854983	tenaciously
-5.947553	honeyed
-4.9604187	firmness
-5.120527	consultation
-5.574523	permits
-4.6396055	threshold
-5.7588334	intriguer
-5.346209	hissed
-5.688345	viciously
-5.1768255	grip
-4.6759825	satisfy
-4.2234697	astonishment
-4.853103	consequences
-5.4455323	darting
-5.086679	noisily
-5.3175793	banged
-5.21887	wringing
-5.157237	recovering
-5.1973395	biting
-6.0854983	underlip
-5.1032734	irrepressible
-4.936729	bursting
-4.872549	staggered
-4.914265	jaw
-6.0854983	ague
-4.8254757	sincerity
-4.6759825	deceive
-4.6574135	slow
-5.688345	wetting
-4.5141945	weep
-4.3261766	loss
-6.1838727	imposes
-5.4098406	coloring
-5.1768255	shyly
-4.505566	acquaintances
-4.2234697	details
-3.9766316	died
-5.6277156	edifying
-4.914265	pitiful
-5.2907205	stricken
-4.1441674	grief
-6.313484	sadden
-6.313484	uplifts
-5.3768606	disapprovingly
-5.0552797	andreevich
-4.6759825	daily
-5.2415247	routine
-5.138494	paul
-5.4455323	exiled
-5.1973395	continuously
-4.399924	bourienne
-4.853103	reign
-5.484422	capitals
-5.346209	remarking
-3.9379673	miles
-4.134973	needed
-5.1032734	sources
-5.070696	vice
-5.157237	idleness
-5.52714	superstition
-5.0552797	virtues
-4.5013156	activity
-5.1768255	undertook
-5.2415247	develop
-3.749595	cardinal
-6.313484	algebra
-5.484422	geometry
-5.21887	memoirs
-6.0854983	solving
-5.138494	problems
-5.484422	mathematics
-6.1838727	snuffboxes
-5.52714	lathe
-4.3347387	working
-3.8400586	garden
-6.1838727	superintending
-4.373925	building
-5.6277156	regularity
-5.574523	prime
-6.1838727	facilitating
-5.52714	exactitude
-4.361487	conditions
-5.1032734	invariably
-5.574523	exacting
-6.0854983	hardhearted
-4.5365453	aroused
-5.52714	retirement
-4.472673	province
-4.872549	antechamber
-4.221245	architect
-5.0403924	gardener
-5.6277156	punctually
-5.1973395	enormously
-5.265426	powdered
-5.4098406	wig
-5.3175793	withered
-5.574523	bushy
-4.9604187	shrewd
-6.1838727	youthfully
-5.947553	trepidation
-4.403286	prayer
-4.590185	prayed
-5.484422	manservant
-4.985475	hum
-4.8436975	noiselessly
-4.3834934	books
-4.26807	plans
-5.7588334	bookcases
-4.936729	keys
-4.651396	desk
-4.7020445	exercise
-4.545818	tools
-6.0854983	shavings
-4.574887	scattered
-5.2415247	continuous
-4.998567	varied
-4.7749925	orderly
-5.688345	shod
-4.9604187	boot
-4.8929067	lean
-5.574523	sinewy
-5.6277156	tenacious
-5.2415247	endurance
-5.843022	hardy
-4.5505295	turns
-6.1838727	pedal
-4.708812	wiped
-5.4098406	chisel
-4.6396055	leather
-5.6277156	pouch
-4.651396	summoned
-6.1838727	bristly
-4.5505295	cheek
-5.843022	unshaven
-4.9604187	page
-5.4098406	scratch
-5.21887	paragraph
-5.3175793	nail
-4.972766	patches
-5.52714	heloise
-5.138494	yellowish
-4.1479006	letters
-4.560109	abruptly
-5.6277156	geometrical
-5.947553	acrid
-5.843022	triangles
-4.555293	angle
-6.313484	abc
-4.9484124	explanations
-4.1871104	fault
-5.0403924	pupil
-4.8079877	dim
-4.1809983	breath
-4.8436975	problem
-5.3768606	vehement
-5.484422	scolded
-4.3205614	flung
-4.5649796	sharply
-4.7671213	paced
-4.75939	lesson
-5.1973395	patted
-5.688345	uncut
-4.531982	key
-5.0259986	mysteries
-4.6396055	religious
-4.7749925	belief
-4.505566	rarely
-4.914265	sickly
-5.843022	plainer
-5.688345	miniature
-5.1768255	portraits
-5.574523	littered
-5.7588334	untidy
-5.4098406	tidy
-4.7297716	seal
-4.457115	frightful
-4.9484124	separation
-5.2415247	separating
-4.574887	united
-5.843022	indissoluble
-5.070696	bonds
-5.6277156	rebels
-4.853103	pleasures
-5.7588334	distractions
-4.545818	overcome
-4.484718	parted
-4.283162	draw
-4.4929376	moral
-4.872549	penetrating
-6.1838727	ungraceful
-5.4455323	hopelessness
-4.4806657	reflection
-6.1838727	flatters
-5.2907205	flatter
-4.8826084	luminous
-5.688345	radiated
-5.4098406	shafts
-4.936729	attraction
-4.751794	talks
-4.377091	brothers
-5.1032734	frontier
-5.2907205	intends
-4.903455	expose
-4.8344913	chances
-4.925352	corsican
-4.4066744	monster
-5.0403924	destroying
-5.52714	overthrown
-4.346424	angel
-5.0120664	almighty
-4.6759825	deprived
-4.590185	nearest
-5.52714	inactive
-4.170999	departure
-5.7588334	youthfulness
-4.8166437	seldom
-4.736989	nowadays
-4.3376307	pure
-5.0259986	poetic
-5.6277156	transient
-5.346209	sweetest
-5.265426	comforts
-4.203842	suffered
-5.070696	someday
-4.7749925	parting
-5.7588334	poignant
-5.070696	sorrows
-4.628127	fortunate
-4.853103	intimacy
-6.1838727	gossips
-4.8826084	inheritance
-5.346209	inherited
-5.2907205	possessor
-4.9604187	finest
-5.688345	rumored
-5.6277156	despicable
-5.947553	crestfallen
-4.5649796	owner
-5.0259986	largest
-5.0120664	fortunes
-6.1838727	mammas
-5.52714	burdened
-6.0854983	marriageable
-6.1838727	chronicles
-5.120527	bezukhova
-5.4455323	marriages
-4.695381	universal
-5.7588334	auntie
-4.708812	strict
-5.2415247	secrecy
-4.067682	marriage
-6.313484	distinguee
-4.037581	fallen
-5.688345	scapegrace
-4.5274663	sheet
-5.4098406	mystical
-4.651396	grasp
-4.7671213	admirable
-6.313484	calms
-6.0854983	elevates
-5.0259986	respects
-4.853103	compliments
-4.744328	transformed
-4.925352	tread
-4.1573763	delight
-5.0552797	romantic
-4.5185733	religion
-4.049372	feelings
-4.872549	approve
-4.9484124	condemn
-4.695381	neighbor
-3.8796396	enemy
-6.0854983	worthier
-5.947553	sweeter
-5.0552797	inspire
-4.3676615	loving
-5.138494	representative
-4.744328	century
-4.7020445	preserve
-4.219031	misfortune
-4.708812	quality
-6.1838727	camel
-4.6338286	kingdom
-4.5141945	terribly
-4.8826084	riches
-5.346209	temptations
-5.4098406	poorer
-5.688345	poorest
-4.8254757	beggar
-4.0332403	thanks
-4.985475	volume
-4.9484124	contains
-4.2393737	useless
-5.7588334	fondness
-5.52714	confusing
-4.574887	dwelling
-5.1768255	awaken
-4.5505295	doubts
-4.8929067	excite
-4.315017	imagination
-5.2907205	exaggeration
-4.574887	simplicity
-6.313484	epistles
-5.688345	gospels
-4.2487297	seek
-4.736989	penetrate
-4.3676615	miserable
-5.2415247	sinners
-4.1850634	holy
-4.5954065	providence
-4.590185	flesh
-4.5365453	forms
-5.1032734	impenetrable
-4.616944	veil
-4.464824	eternal
-5.265426	confine
-4.8436975	studying
-4.8436975	sublime
-4.8079877	rules
-4.998567	guidance
-5.6277156	conform
-4.5954065	persuaded
-5.947553	rejects
-5.3175793	fathom
-4.278073	conceal
-5.843022	vouchsafe
-5.086679	revelation
-5.574523	suitor
-4.6454606	project
-4.9604187	institution
-5.1032734	faithfully
-5.947553	disquieting
-4.574887	examining
-5.6277156	announces
-4.8436975	speedy
-4.5141945	brief
-6.313484	fieldwork
-5.947553	townsfolk
-4.663515	characteristic
-5.138494	rumors
-4.560109	painfully
-5.4455323	marches
-6.313484	countermarches
-4.903455	witnessed
-5.843022	heartrending
-4.862717	convoy
-6.313484	conscripts
-5.52714	enrolled
-4.8929067	wives
-4.4806657	sobs
-4.4971066	laws
-5.574523	injuries
-5.1973395	attribute
-4.722672	merit
-4.715687	skill
-4.744328	killing
-5.4455323	dispatched
-6.0854983	mellow
-5.7588334	guttural
-5.6277156	strenuous
-4.541157	atmosphere
-5.7588334	lighthearted
-6.313484	grasseyement
-5.2907205	scolding
-4.212456	ivanovich
-4.6759825	humor
-5.3175793	morose
-4.7830095	practice
-6.1838727	mapped
-4.315017	valet
-6.1838727	drowsily
-5.4098406	snoring
-5.0120664	passages
-6.0854983	sonata
-6.313484	dussek
-4.751794	hood
-5.4455323	alight
-4.600692	tikhon
-4.5954065	reported
-4.4066744	sleeping
-4.488808	unusual
-4.237066	event
-4.669704	habits
-5.688345	stouter
-4.113669	palace
-5.947553	practicing
-5.157237	courteous
-6.1838727	haired
-5.138494	frenchwoman
-4.4495406	wedding
-3.9817162	whatever
-5.843022	beatific
-4.5649796	equally
-4.972766	lovers
-4.29091	false
-4.4806657	otherwise
-4.5505295	dreamed
-6.313484	crybaby
-4.7830095	incessantly
-5.947553	nether
-4.5799265	accident
-6.313484	spasski
-4.2324862	hill
-4.1871104	informed
-4.170999	clothes
-3.6109536	kitty
-6.313484	odyntsova
-4.75939	independent
-5.2415247	promotion
-4.309543	descended
-5.086679	walks
-5.843022	avenues
-5.3175793	weaknesses
-5.3768606	gleefully
-5.3768606	delights
-5.574523	antique
-4.38673	dressing
-4.8929067	contemptuous
-6.1838727	powdering
-6.0854983	entrusting
-5.574523	warrior
-5.947553	vanquish
-5.574523	plait
-5.3768606	tackle
-4.682353	subjects
-4.545818	temper
-4.457115	golden
-5.157237	sidelong
-4.75939	fun
-6.313484	abstemious
-5.947553	hobby
-4.914265	germans
-4.403286	science
-4.8079877	collect
-5.138494	wits
-6.313484	foibles
-6.1838727	honoring
-4.5850253	settle
-6.313484	pigtail
-5.6277156	plaited
-5.0552797	grasping
-5.086679	nineteen
-4.396588	dozen
-6.313484	mikhelson
-5.3768606	tolstoy
-5.843022	simultaneous
-4.4971066	southern
-5.7588334	neutral
-4.9484124	handing
-4.7297716	articles
-5.086679	clothing
-5.7588334	sweden
-6.1838727	pomerania
-4.4971066	unconsciously
-4.6454606	operation
-4.4135313	campaign
-5.2415247	ninety
-5.138494	threaten
-5.688345	swedish
-6.313484	stralsund
-5.21887	austrians
-5.4455323	operate
-4.522997	italy
-3.6709979	land
-4.914265	naples
-4.8166437	total
-4.26807	explanation
-4.7297716	confined
-4.9484124	reproachfully
-5.2415247	interruption
-6.313484	malbrook
-6.1838727	guerre
-5.947553	sait
-5.7588334	quand
-6.0854983	reviendra
-6.313484	marlborough
-5.947553	meditatively
-5.3175793	shaven
-5.120527	caprice
-5.484422	employer
-4.472673	admitted
-4.616944	individual
-4.11194	caused
-5.4455323	distinctions
-4.985475	officials
-4.914265	selected
-6.0854983	illustrate
-5.4098406	equals
-4.574887	impressed
-6.0854983	whit
-4.361487	usually
-5.265426	taciturn
-4.396588	members
-5.1768255	scanning
-5.21887	gilt
-5.7588334	genealogical
-4.293523	tree
-4.985475	princes
-4.688818	painted
-4.3523865	artist
-5.6277156	ruling
-4.8079877	crown
-5.4098406	alleged
-5.574523	descendant
-6.0854983	rurik
-5.7588334	ancestor
-6.1838727	bolkonskis
-5.0259986	laughs
-4.6338286	original
-5.0120664	reverence
-5.574523	achilles
-5.086679	heel
-5.7588334	indulging
-5.138494	criticism
-5.0120664	wont
-5.6277156	contrasting
-5.947553	briskness
-5.3175793	formality
-4.8436975	shrill
-5.1032734	courtiers
-4.663515	tsar
-5.2415247	enters
-4.5274663	sensation
-6.313484	ianovich
-5.265426	ho
-4.9484124	rounded
-4.3347387	hurry
-4.985475	mutual
-5.346209	chattered
-4.1592965	various
-6.313484	retailing
-4.5649796	sufficiently
-4.545818	collected
-5.688345	peg
-4.7020445	hang
-6.1838727	tactician
-4.4533114	generals
-6.1838727	statesmen
-5.688345	babies
-4.600692	b
-5.6277156	c
-6.0854983	frenchy
-4.8254757	successful
-6.1838727	potemkins
-4.936729	oppose
-6.0854983	puppet
-4.8344913	pretending
-4.914265	ridicule
-5.843022	moreau
-5.947553	frederick
-3.876618	prisoner
-4.914265	puzzled
-3.9855688	chance
-6.313484	pahlen
-5.1032734	york
-4.574887	america
-5.4455323	alluding
-6.313484	orlovs
-5.947553	outlived
-4.251101	hoped
-5.138494	spoon
-3.8114922	soldiers
-4.8436975	attacking
-5.52714	idlers
-4.5799265	beaten
-4.505566	fighting
-5.52714	blunders
-5.52714	campaigns
-4.695381	arguments
-4.11194	presented
-6.0854983	refraining
-4.3802805	involuntarily
-5.346209	minutely
-5.52714	acutely
-4.7297716	recent
-4.6759825	european
-4.0404987	events
-4.9484124	troubles
-5.4098406	admirer
-5.0403924	bonapartist
-4.555293	quitted
-4.293523	retired
-4.8254757	traveling
-5.947553	epaulettes
-5.0403924	packing
-5.52714	inspecting
-4.8826084	trunks
-4.985475	harnessed
-4.039037	box
-5.7588334	canteen
-4.972766	fitted
-4.5098586	pistols
-4.853103	siege
-6.313484	ochakov
-4.853103	effects
-4.5850253	cloth
-5.120527	covers
-6.0854983	tapes
-4.1386275	journey
-4.8826084	mode
-5.4455323	reviews
-4.8254757	thoughtfully
-6.1838727	unclasped
-4.5185733	cover
-4.75939	tranquil
-4.8436975	harness
-4.8166437	panting
-5.7588334	andrusha
-5.2415247	mischievous
-5.484422	playfellow
-5.3175793	indulgent
-6.313484	comprendre
-6.313484	pardonner
-4.3645635	buried
-4.972766	resources
-5.2907205	entertaining
-4.715687	savage
-4.751794	likes
-6.1838727	sterne
-4.8166437	homeless
-5.4098406	reads
-5.120527	evenings
-5.4098406	aghast
-5.1032734	harsh
-5.484422	puzzle
-5.1973395	test
-5.843022	trend
-5.4455323	veneration
-6.0854983	evoke
-4.6759825	contented
-5.6277156	incredulously
-4.708812	intellect
-4.434777	fail
-5.21887	astray
-4.442096	shade
-5.346209	improvement
-6.0854983	satire
-4.373925	bitter
-4.4495406	monk
-5.2415247	wasting
-4.457115	powder
-6.313484	banteringly
-5.688345	ami
-4.7830095	unworthy
-4.2755504	inside
-5.120527	guessing
-4.5274663	grandfather
-4.6396055	bless
-4.7671213	icon
-5.0552797	weigh
-6.1838727	hundredweight
-5.265426	pained
-5.3768606	repented
-4.091711	trembling
-5.265426	oval
-5.2907205	wrought
-4.3493953	rays
-4.5505295	generous
-5.52714	harshly
-5.0403924	complained
-5.0552797	masha
-4.9484124	blamed
-5.52714	forebodings
-5.1032734	confinement
-4.8079877	dreaded
-4.872549	reproached
-5.265426	unaccustomed
-3.9946938	darkness
-4.5850253	wake
-6.313484	petrushka
-4.75939	wing
-5.6277156	artless
-5.484422	secluded
-4.315017	contempt
-4.5649796	awake
-6.0854983	zubova
-5.2907205	cheat
-4.125969	ha
-5.1768255	reminiscences
-4.914265	coach
-4.75939	autumn
-4.315017	pole
-5.346209	lanterns
-5.1768255	apron
-5.0552797	strings
-5.484422	quill
-5.4098406	squeaked
-4.219031	due
-6.313484	accoucheur
-4.5850253	million
-4.442096	cases
-4.0261016	dream
-4.4495406	signed
-5.574523	flourish
-4.9484124	briefly
-6.313484	unmarry
-4.715687	keen
-5.52714	fold
-4.427579	throwing
-4.6396055	rapidity
-5.138494	abrupt
-5.484422	sealing
-4.791177	displeased
-4.616944	worry
-5.1768255	receives
-5.7588334	disfavor
-5.0403924	lid
-4.972766	drawer
-5.138494	handwriting
-6.313484	lombard
-5.157237	bond
-6.0854983	premium
-4.140466	history
-5.265426	academy
-6.1838727	jottings
-4.488808	useful
-4.8929067	twitched
-6.0854983	spectacled
-6.313484	wigless
-5.2907205	ironic
-4.8079877	performance
-4.682353	unconscious
-4.8436975	cautiously
-4.925352	released
-5.947553	chafing
-4.715687	temples
-4.998567	supporting
-4.427579	pistol
-4.75939	shots
-4.7297716	frequent
-4.75939	blowing
-5.947553	reprovingly
-4.611459	october
-4.9604187	villages
-4.972766	towns
-6.313484	archduchy
-4.972766	regiments
-4.708812	arriving
-5.1768255	fortress
-5.3768606	braunau
-5.843022	burdening
-4.457115	inhabitants
-5.21887	quartered
-4.862717	headquarters
-4.75939	halted
-4.4766507	mile
-5.484422	inspected
-5.0259986	locality
-4.8929067	surroundings
-4.8166437	gardens
-5.3768606	fences
-6.1838727	tiled
-4.925352	roofs
-5.1768255	inspect
-4.791177	regimental
-4.361487	arose
-4.064576	troops
-5.0120664	marching
-4.8166437	battalion
-4.751794	commanders
-5.086679	parade
-4.8929067	principle
-5.843022	mending
-5.3768606	cleaning
-4.8344913	calculated
-4.715687	reckoned
-5.688345	straggling
-5.265426	disorderly
-3.829125	crowd
-5.7588334	array
-5.0120664	button
-5.4455323	strap
-5.52714	cleanliness
-5.574523	externally
-4.8436975	uniforms
-5.574523	knapsack
-6.313484	awl
-5.3768606	soap
-4.4384212	circumstance
-4.560109	concerning
-4.903455	holes
-4.925352	demands
-4.6396055	austrian
-5.3175793	commissariat
-4.8344913	marched
-6.1838727	choleric
-4.8079877	whiskers
-5.157237	wider
-5.947553	creases
-4.6759825	folded
-4.001331	stand
-4.1554646	lie
-5.120527	massive
-4.5649796	happily
-5.265426	performing
-5.688345	arching
-4.8254757	admired
-4.985475	rejoiced
-5.0259986	engrossed
-6.313484	strut
-5.2415247	sex
-6.0854983	mitrich
-4.151666	perceived
-4.1850634	field
-6.313484	tsaritsin
-4.7671213	meadow
-3.690824	road
-6.313484	signalers
-5.120527	posted
-4.936729	confirm
-5.574523	worded
-4.8436975	namely
-5.52714	greatcoats
-5.52714	packs
-4.985475	preparation
-5.688345	hofkriegsrath
-5.2907205	proposals
-5.346209	archduke
-5.52714	ferdinand
-5.1768255	mack
-5.2907205	junction
-5.574523	advisable
-4.7297716	resolutely
-5.688345	sergeants
-4.293523	major
-4.8166437	relating
-4.669704	personage
-5.086679	companies
-5.346209	sway
-4.936729	stretch
-5.6277156	knapsacks
-5.574523	jerk
-5.4455323	straps
-6.313484	unstrapping
-5.6277156	overcoats
-6.1838727	upraised
-5.843022	jerky
-6.313484	misrepeated
-5.0552797	destination
-5.3768606	trotted
-3.3153129	captain
-4.468731	uneasiness
-5.0403924	schoolboy
-4.853103	spots
-6.0854983	intemperance
-5.7588334	slackening
-4.427579	pace
-5.843022	petticoats
-5.138494	thrusting
-3.9960132	soldier
-5.265426	greatcoat
-5.086679	bluish
-5.265426	contrasted
-4.628127	teach
-4.914265	coats
-6.0854983	rigidly
-4.6574135	salvation
-5.265426	austere
-6.313484	gibe
-4.26807	nobody
-4.722672	reduced
-4.4135313	marshal
-5.947553	regulation
-5.3768606	cooling
-4.8079877	renewed
-5.346209	decently
-4.434777	directed
-4.7297716	wrath
-4.9484124	snapped
-5.843022	unpolished
-4.853103	sergeant
-6.0854983	ras
-5.3768606	insults
-4.853103	tight
-6.313484	signaler
-5.4455323	stirrup
-4.5649796	saddle
-6.1838727	righted
-5.947553	awry
-4.545818	shout
-5.070696	fluttered
-4.472673	bird
-6.1838727	preening
-5.3768606	plumage
-4.174971	motionless
-4.5649796	welcome
-5.574523	edged
-3.8898666	trees
-5.947553	viennese
-5.0552797	caleche
-5.070696	creaking
-4.8254757	springs
-4.8079877	smart
-4.925352	trot
-4.396588	galloped
-4.5505295	suite
-6.313484	croats
-5.3175793	treading
-5.2907205	breathlessly
-5.346209	jingling
-5.086679	amidst
-5.0259986	roared
-6.313484	ex
-6.1838727	len
-6.313484	lency
-4.872549	saluted
-4.9604187	devoured
-6.0854983	obsequiously
-5.265426	subordinate
-4.914265	zeal
-5.947553	strictness
-6.0854983	assiduity
-4.8344913	comparison
-5.6277156	stragglers
-5.4098406	blaming
-4.600692	miss
-4.574887	comrade
-4.663515	nesvitski
-4.791177	moist
-4.9604187	provoked
-5.484422	swarthy
-5.6277156	mimicked
-5.7588334	nudged
-5.688345	wag
-5.52714	sockets
-5.0403924	timokhin
-4.7671213	recognizing
-5.688345	reprimanded
-4.590185	extent
-4.998567	sustained
-5.688345	flitting
-5.947553	scarred
-5.4455323	puffy
-6.0854983	ismail
-4.346424	brave
-6.0854983	predilection
-6.0854983	bacchus
-4.682353	stomach
-4.080332	complete
-4.5649796	recollect
-4.688818	remind
-4.972766	complaint
-4.651396	sha
-4.5098586	tear
-6.1838727	convention
-5.4098406	separates
-5.157237	deliberate
-5.3768606	atone
-4.4066744	quarters
-5.120527	grudge
-5.484422	prokhor
-6.313484	ignatych
-5.3175793	overtaking
-4.442096	riding
-4.853103	hasty
-5.120527	apologize
-5.138494	butt
-4.315017	gun
-5.7588334	punctilious
-4.1367965	wild
-4.427579	beast
-4.9484124	poland
-4.8079877	jew
-4.293523	sought
-6.1838727	reining
-4.925352	mocking
-4.616944	vodka
-5.0259986	praised
-4.0723825	rode
-6.0854983	subaltern
-5.120527	infected
-4.4533114	blind
-4.985475	bands
-5.21887	smeared
-5.086679	chalk
-5.1973395	flour
-4.682353	polish
-4.169027	guns
-6.313484	fedeshon
-4.925352	battles
-5.843022	prussians
-5.0403924	devils
-6.0854983	quartermasters
-4.590185	fifth
-5.52714	buckwheat
-5.138494	cooked
-5.1973395	biscuit
-4.8929067	halt
-4.505566	eating
-5.7588334	lifts
-5.688345	beggarly
-4.853103	poles
-5.21887	singers
-5.346209	drummer
-4.985475	leader
-5.0403924	flourishing
-5.688345	commencing
-5.086679	dawned
-3.8475037	sun
-5.947553	concluding
-5.688345	kamenski
-4.5365453	composed
-5.2415247	sung
-4.9604187	flinging
-4.3834934	seconds
-5.7588334	bower
-6.313484	castanet
-5.6277156	player
-5.2415247	flourished
-6.313484	castanets
-5.0403924	swinging
-5.574523	spontaneously
-5.265426	tramp
-4.8254757	hoofs
-4.343473	singing
-5.157237	smartly
-5.0552797	file
-4.5141945	flank
-4.434777	attracted
-4.914265	zherkov
-6.313484	ranker
-5.2907205	cordiality
-5.0552797	flavor
-5.843022	intentional
-4.985475	coldness
-5.7588334	wriggled
-5.7588334	hawk
-4.315017	fly
-5.484422	arousing
-5.4455323	cheerfulness
-5.947553	faro
-4.998567	sworn
-5.947553	reinstated
-4.5799265	engagement
-4.606042	native
-5.947553	pranced
-4.925352	excitedly
-4.853103	review
-4.0835524	advanced
-4.3205614	required
-4.736989	exclamation
-5.070696	elegance
-4.7671213	depended
-4.251101	personal
-5.2907205	francis
-4.8929067	fulfilled
-4.315017	honour
-4.8929067	supreme
-5.0120664	skillful
-4.791177	grounds
-6.1838727	option
-5.6277156	participation
-5.1032734	valued
-5.2907205	depriving
-5.574523	laurels
-4.736989	win
-5.843022	prearranged
-4.7297716	highness
-4.903455	honored
-4.4458027	victory
-4.468731	aid
-4.9484124	defeat
-5.7588334	confirming
-5.21887	afloat
-4.7749925	stated
-6.313484	strategically
-4.651396	favorable
-5.120527	seventy
-6.1838727	lech
-4.531982	masters
-5.484422	ulm
-4.29091	advantage
-4.862717	commanding
-5.3175793	danube
-5.7588334	communications
-6.0854983	recross
-4.0434365	river
-6.1838727	frustrate
-5.574523	ally
-5.0120664	confidently
-4.715687	await
-5.086679	equipped
-5.4098406	conjunction
-5.086679	deserves
-5.6277156	mildly
-4.574887	wise
-5.6277156	maxim
-5.574523	advising
-4.3899913	worst
-5.4455323	jests
-5.2907205	kozlovski
-5.688345	scouts
-6.1838727	nostitz
-5.265426	neat
-5.6277156	memorandum
-4.260716	period
-5.688345	indolence
-5.070696	brighter
-5.1768255	overtaken
-5.265426	commissions
-5.6277156	bids
-5.21887	industry
-5.947553	reputations
-5.843022	minority
-4.8166437	acknowledged
-5.7588334	imitated
-4.6454606	disliked
-5.4455323	conceited
-4.5954065	advancing
-5.4455323	maria
-6.0854983	theresa
-5.2907205	bandage
-5.688345	slamming
-3.9933784	unknown
-4.488808	calmly
-5.120527	notebook
-5.7588334	scribbled
-4.9484124	pencil
-4.606042	tore
-5.0120664	leaf
-4.23477	stretched
-5.120527	producing
-5.0403924	bandaged
-5.070696	strides
-6.0854983	voyez
-6.313484	malheureux
-6.313484	immobile
-4.7020445	wave
-4.197492	report
-5.6277156	circulated
-5.0403924	surrendered
-4.241694	proved
-4.5098586	hitherto
